{"learner":{"attributes":{"best_iteration":"299","best_score":"0.7231863519059147","scikit_learn":"{\"_estimator_type\": \"classifier\"}"},"feature_names":[],"feature_types":[],"gradient_booster":{"model":{"cats":{"enc":[],"feature_segments":[],"sorted_idx":[]},"gbtree_model_param":{"num_parallel_tree":"1","num_trees":"300"},"iteration_indptr":[0,1,2,3,4,5,6,7,8,9,10,11,12,13,14,15,16,17,18,19,20,21,22,23,24,25,26,27,28,29,30,31,32,33,34,35,36,37,38,39,40,41,42,43,44,45,46,47,48,49,50,51,52,53,54,55,56,57,58,59,60,61,62,63,64,65,66,67,68,69,70,71,72,73,74,75,76,77,78,79,80,81,82,83,84,85,86,87,88,89,90,91,92,93,94,95,96,97,98,99,100,101,102,103,104,105,106,107,108,109,110,111,112,113,114,115,116,117,118,119,120,121,122,123,124,125,126,127,128,129,130,131,132,133,134,135,136,137,138,139,140,141,142,143,144,145,146,147,148,149,150,151,152,153,154,155,156,157,158,159,160,161,162,163,164,165,166,167,168,169,170,171,172,173,174,175,176,177,178,179,180,181,182,183,184,185,186,187,188,189,190,191,192,193,194,195,196,197,198,199,200,201,202,203,204,205,206,207,208,209,210,211,212,213,214,215,216,217,218,219,220,221,222,223,224,225,226,227,228,229,230,231,232,233,234,235,236,237,238,239,240,241,242,243,244,245,246,247,248,249,250,251,252,253,254,255,256,257,258,259,260,261,262,263,264,265,266,267,268,269,270,271,272,273,274,275,276,277,278,279,280,281,282,283,284,285,286,287,288,289,290,291,292,293,294,295,296,297,298,299,300],"tree_info":[0,0,0,0,0,0,0,0,0,0,0,0,0,0,0,0,0,0,0,0,0,0,0,0,0,0,0,0,0,0,0,0,0,0,0,0,0,0,0,0,0,0,0,0,0,0,0,0,0,0,0,0,0,0,0,0,0,0,0,0,0,0,0,0,0,0,0,0,0,0,0,0,0,0,0,0,0,0,0,0,0,0,0,0,0,0,0,0,0,0,0,0,0,0,0,0,0,0,0,0,0,0,0,0,0,0,0,0,0,0,0,0,0,0,0,0,0,0,0,0,0,0,0,0,0,0,0,0,0,0,0,0,0,0,0,0,0,0,0,0,0,0,0,0,0,0,0,0,0,0,0,0,0,0,0,0,0,0,0,0,0,0,0,0,0,0,0,0,0,0,0,0,0,0,0,0,0,0,0,0,0,0,0,0,0,0,0,0,0,0,0,0,0,0,0,0,0,0,0,0,0,0,0,0,0,0,0,0,0,0,0,0,0,0,0,0,0,0,0,0,0,0,0,0,0,0,0,0,0,0,0,0,0,0,0,0,0,0,0,0,0,0,0,0,0,0,0,0,0,0,0,0,0,0,0,0,0,0,0,0,0,0,0,0,0,0,0,0,0,0,0,0,0,0,0,0,0,0,0,0,0,0,0,0,0,0,0,0,0,0,0,0,0,0,0,0,0,0,0,0],"trees":[{"base_weights":[-1.6860745E-3,-7.6294637E-1,4.0758786E-1,-1.2002511E0,-5.2214015E-1,2.1123983E-1,9.229404E-1,-1.4415113E0,-1.0671442E0,-4.105655E-1,-7.675157E-1,4.3624383E-3,4.291913E-1,1.1066729E0,7.5418615E-1,-1.2506631E-1,-1.5178768E-1,-8.844043E-2,-1.1814528E-1,-2.4880115E-2,-5.2948534E-2,-8.596809E-2,-5.6719627E-2,1.6602052E-2,-1.6845677E-2,5.32947E-2,1.4737191E-2,9.582058E-2,1.22616604E-1,5.9694897E-2,9.3137436E-2],"categories":[],"categories_nodes":[],"categories_segments":[],"categories_sizes":[],"default_left":[0,0,0,0,0,0,0,0,0,0,0,0,0,0,0,0,0,0,0,0,0,0,0,0,0,0,0,0,0,0,0],"id":0,"left_children":[1,3,5,7,9,11,13,15,17,19,21,23,25,27,29,-1,-1,-1,-1,-1,-1,-1,-1,-1,-1,-1,-1,-1,-1,-1,-1],"loss_changes":[8.1825266E4,9.668652E3,1.7282648E4,1.0440586E3,1.6207188E3,5.5767095E3,1.4593398E3,1.6508789E2,4.3702148E2,7.8296045E2,3.4074707E2,1.7728342E3,1.7609551E3,3.9779297E2,6.833633E2,0E0,0E0,0E0,0E0,0E0,0E0,0E0,0E0,0E0,0E0,0E0,0E0,0E0,0E0,0E0,0E0],"parents":[2147483647,0,0,1,1,2,2,3,3,4,4,5,5,6,6,7,7,8,8,9,9,10,10,11,11,12,12,13,13,14,14],"right_children":[2,4,6,8,10,12,14,16,18,20,22,24,26,28,30,-1,-1,-1,-1,-1,-1,-1,-1,-1,-1,-1,-1,-1,-1,-1,-1],"split_conditions":[1.08E2,6E1,2.16E2,6.92E0,1.2655E4,1.44E2,7.416E3,3.663E3,3.72024E3,2.84726E3,2.20342E2,3.44037E3,1.4404E4,4.04581E2,4.28852E2,-1.2506631E-1,-1.5178768E-1,-8.844043E-2,-1.1814528E-1,-2.4880115E-2,-5.2948534E-2,-8.596809E-2,-5.6719627E-2,1.6602052E-2,-1.6845677E-2,5.32947E-2,1.4737191E-2,9.582058E-2,1.22616604E-1,5.9694897E-2,9.3137436E-2],"split_indices":[33,33,33,3,25,33,25,35,35,35,32,35,25,32,32,0,0,0,0,0,0,0,0,0,0,0,0,0,0,0,0],"split_type":[0,0,0,0,0,0,0,0,0,0,0,0,0,0,0,0,0,0,0,0,0,0,0,0,0,0,0,0,0,0,0],"sum_hessian":[2.6262347E5,9.182494E4,1.7079853E5,3.2605432E4,5.9219508E4,1.2367969E5,4.711884E4,1.1585929E4,2.1019502E4,4.0712496E4,1.8507012E4,6.345288E4,6.0226812E4,2.2552982E4,2.4565857E4,3.3210134E3,8.264916E3,8.0953364E3,1.2924166E4,1.725163E4,2.3460867E4,1.2670738E4,5.836274E3,3.2785156E4,3.0667725E4,4.4018875E4,1.6207937E4,1.0065238E4,1.2487744E4,1.3020326E4,1.1545531E4],"tree_param":{"num_deleted":"0","num_feature":"37","num_nodes":"31","size_leaf_vector":"1"}},{"base_weights":[-2.2075605E-4,-6.915134E-1,3.709594E-1,-1.0821809E0,-4.766356E-1,1.9473979E-1,8.338232E-1,-1.2554846E0,-9.1412705E-1,-6.1670834E-1,-2.907064E-1,7.841089E-3,3.9105362E-1,1.0356224E0,7.0458883E-1,-1.06522396E-1,-1.3312636E-1,-7.524604E-2,-1.0403887E-1,-4.1200217E-2,-7.117831E-2,-4.5720574E-2,-1.6667854E-2,1.9387595E-2,-1.484074E-2,5.6898236E-2,2.495098E-2,9.258795E-2,1.156139E-1,8.647443E-2,5.625504E-2],"categories":[],"categories_nodes":[],"categories_segments":[],"categories_sizes":[],"default_left":[0,0,0,0,0,0,0,0,0,0,0,0,0,0,0,0,0,0,0,0,0,0,0,0,0,0,0,0,0,0,0],"id":1,"left_children":[1,3,5,7,9,11,13,15,17,19,21,23,25,27,29,-1,-1,-1,-1,-1,-1,-1,-1,-1,-1,-1,-1,-1,-1,-1,-1],"loss_changes":[6.741153E4,7.703625E3,1.3942123E4,9.461953E2,1.5418467E3,4.5424805E3,1.2277383E3,2.2824805E2,3.3608105E2,6.5668164E2,5.2534546E2,1.8436793E3,1.5204023E3,2.4116406E2,6.527783E2,0E0,0E0,0E0,0E0,0E0,0E0,0E0,0E0,0E0,0E0,0E0,0E0,0E0,0E0,0E0,0E0],"parents":[2147483647,0,0,1,1,2,2,3,3,4,4,5,5,6,6,7,7,8,8,9,9,10,10,11,11,12,12,13,13,14,14],"right_children":[2,4,6,8,10,12,14,16,18,20,22,24,26,28,30,-1,-1,-1,-1,-1,-1,-1,-1,-1,-1,-1,-1,-1,-1,-1,-1],"split_conditions":[1.08E2,6E1,2.16E2,4E0,9E0,1.44E2,1E0,3.5461E3,4.0243E3,2.77778E3,1E0,1E0,1E0,4.62108E2,3.41297E3,-1.06522396E-1,-1.3312636E-1,-7.524604E-2,-1.0403887E-1,-4.1200217E-2,-7.117831E-2,-4.5720574E-2,-1.6667854E-2,1.9387595E-2,-1.484074E-2,5.6898236E-2,2.495098E-2,9.258795E-2,1.156139E-1,8.647443E-2,5.625504E-2],"split_indices":[33,33,33,6,6,33,21,35,35,35,8,21,21,32,35,0,0,0,0,0,0,0,0,0,0,0,0,0,0,0,0],"split_type":[0,0,0,0,0,0,0,0,0,0,0,0,0,0,0,0,0,0,0,0,0,0,0,0,0,0,0,0,0,0,0],"sum_hessian":[2.627126E5,9.177934E4,1.7093325E5,3.256505E4,5.9214293E4,1.238025E5,4.7130746E4,1.6025737E4,1.6539314E4,3.376914E4,2.5445154E4,6.3423168E4,6.0379332E4,1.8394203E4,2.8736541E4,4.573364E3,1.1452373E4,7.2588877E3,9.280427E3,1.0713173E4,2.3055965E4,1.0860399E4,1.4584755E4,2.895174E4,3.4471426E4,2.6748676E4,3.3630656E4,9.636515E3,8.757688E3,1.3502088E4,1.5234454E4],"tree_param":{"num_deleted":"0","num_feature":"37","num_nodes":"31","size_leaf_vector":"1"}},{"base_weights":[1.2274925E-3,-5.7668805E-1,3.594191E-1,-9.712097E-1,-3.8122088E-1,1.9415273E-1,7.009578E-1,-1.1429986E0,-8.1262237E-1,-5.138445E-1,-2.1461913E-1,-8.7833785E-2,2.8961244E-1,3.0413613E-1,7.8554773E-1,-8.097561E-2,-1.18109874E-1,-9.231226E-2,-6.86963E-2,-6.333228E-2,-3.8457558E-2,-2.66675E-2,9.132958E-3,-2.563245E-2,3.4511604E-3,1.0765151E-2,4.1967075E-2,-1.0655454E-2,3.9627478E-2,6.8706475E-2,9.290429E-2],"categories":[],"categories_nodes":[],"categories_segments":[],"categories_sizes":[],"default_left":[0,0,0,0,0,0,0,0,0,0,0,0,0,0,0,0,0,0,0,0,0,0,0,0,0,0,0,0,0,0,0],"id":2,"left_children":[1,3,5,7,9,11,13,15,17,19,21,23,25,27,29,-1,-1,-1,-1,-1,-1,-1,-1,-1,-1,-1,-1,-1,-1,-1,-1],"loss_changes":[5.4277066E4,7.7362344E3,9.136646E3,9.036719E2,1.4822129E3,2.9365767E3,1.771373E3,2.0059961E2,2.3881348E2,5.764424E2,4.7370776E2,5.687896E2,1.928666E3,3.511795E2,6.1358203E2,0E0,0E0,0E0,0E0,0E0,0E0,0E0,0E0,0E0,0E0,0E0,0E0,0E0,0E0,0E0,0E0],"parents":[2147483647,0,0,1,1,2,2,3,3,4,4,5,5,6,6,7,7,8,8,9,9,10,10,11,11,12,12,13,13,14,14],"right_children":[2,4,6,8,10,12,14,16,18,20,22,24,26,28,30,-1,-1,-1,-1,-1,-1,-1,-1,-1,-1,-1,-1,-1,-1,-1,-1],"split_conditions":[1.1E1,6E0,1.9E1,4E0,9E0,1.4E-1,1.552E-1,4.1E4,1E0,1.725E1,6E1,1.484E1,1.4E1,6.01E-2,2.4E1,-8.097561E-2,-1.18109874E-1,-9.231226E-2,-6.86963E-2,-6.333228E-2,-3.8457558E-2,-2.66675E-2,9.132958E-3,-2.563245E-2,3.4511604E-3,1.0765151E-2,4.1967075E-2,-1.0655454E-2,3.9627478E-2,6.8706475E-2,9.290429E-2],"split_indices":[6,6,6,6,6,30,30,9,8,11,2,11,6,30,6,0,0,0,0,0,0,0,0,0,0,0,0,0,0,0,0],"split_type":[0,0,0,0,0,0,0,0,0,0,0,0,0,0,0,0,0,0,0,0,0,0,0,0,0,0,0,0,0,0,0],"sum_hessian":[2.6219838E5,1.00327E5,1.6187136E5,3.3236355E4,6.709064E4,1.0908811E5,5.2783258E4,1.594817E4,1.7288188E4,3.735219E4,2.9738445E4,2.7589453E4,8.149866E4,9.276288E3,4.350697E4,1.6408629E3,1.4307308E4,9.192209E3,8.095978E3,1.9407127E4,1.7945066E4,2.541453E4,4.3239175E3,1.1605073E4,1.598438E4,3.397243E4,4.7526227E4,1.6997339E3,7.576554E3,2.5806871E4,1.77001E4],"tree_param":{"num_deleted":"0","num_feature":"37","num_nodes":"31","size_leaf_vector":"1"}},{"base_weights":[1.8289952E-3,-5.5996585E-1,3.0196336E-1,-8.9126754E-1,-3.810451E-1,1.5566705E-1,6.9233125E-1,-1.0933686E0,-7.8164685E-1,-2.8648263E-1,-5.9074175E-1,3.271103E-3,3.1640407E-1,8.792842E-1,5.729321E-1,-8.881074E-2,-1.1717601E-1,-5.776E-2,-8.5572794E-2,-4.0486164E-2,-1.712261E-2,-7.119028E-2,-4.9928974E-2,1.6221654E-2,-1.2998818E-2,4.551893E-2,1.5913049E-2,8.010131E-2,9.9691205E-2,7.082283E-2,4.178622E-2],"categories":[],"categories_nodes":[],"categories_segments":[],"categories_sizes":[],"default_left":[0,0,0,0,0,0,0,0,0,0,0,0,0,0,0,0,0,0,0,0,0,0,0,0,0,0,0,0,0,0,0],"id":3,"left_children":[1,3,5,7,9,11,13,15,17,19,21,23,25,27,29,-1,-1,-1,-1,-1,-1,-1,-1,-1,-1,-1,-1,-1,-1,-1,-1],"loss_changes":[4.3987645E4,5.384074E3,9.710492E3,7.039961E2,1.1693789E3,3.0297932E3,1.0336641E3,1.7808301E2,3.1129492E2,5.5461597E2,2.024126E2,1.3448815E3,1.3137705E3,1.6469434E2,5.9299023E2,0E0,0E0,0E0,0E0,0E0,0E0,0E0,0E0,0E0,0E0,0E0,0E0,0E0,0E0,0E0,0E0],"parents":[2147483647,0,0,1,1,2,2,3,3,4,4,5,5,6,6,7,7,8,8,9,9,10,10,11,11,12,12,13,13,14,14],"right_children":[2,4,6,8,10,12,14,16,18,20,22,24,26,28,30,-1,-1,-1,-1,-1,-1,-1,-1,-1,-1,-1,-1,-1,-1,-1,-1],"split_conditions":[1.08E2,6E1,2.16E2,6.92E0,1.2655E4,1.44E2,1E0,5.078E3,2.89017E3,1.725E1,1.528E1,1E0,7.416E3,2.427E1,3.83609E3,-8.881074E-2,-1.1717601E-1,-5.776E-2,-8.5572794E-2,-4.0486164E-2,-1.712261E-2,-7.119028E-2,-4.9928974E-2,1.6221654E-2,-1.2998818E-2,4.551893E-2,1.5913049E-2,8.010131E-2,9.9691205E-2,7.082283E-2,4.178622E-2],"split_indices":[33,33,33,3,25,33,21,25,35,11,11,21,25,11,35,0,0,0,0,0,0,0,0,0,0,0,0,0,0,0,0],"split_type":[0,0,0,0,0,0,0,0,0,0,0,0,0,0,0,0,0,0,0,0,0,0,0,0,0,0,0,0,0,0,0],"sum_hessian":[2.6087386E5,9.083889E4,1.7003497E5,3.1851867E4,5.8987023E4,1.2368495E5,4.6350023E4,1.1194773E4,2.0657094E4,4.0657363E4,1.8329662E4,6.3490855E4,6.0194094E4,1.8059723E4,2.8290299E4,3.100649E3,8.0941245E3,5.506829E3,1.5150264E4,2.0054512E4,2.0602852E4,7.878369E3,1.0451292E4,2.895466E4,3.4536195E4,3.1974547E4,2.8219547E4,1.0853372E4,7.206351E3,1.5104615E4,1.3185685E4],"tree_param":{"num_deleted":"0","num_feature":"37","num_nodes":"31","size_leaf_vector":"1"}},{"base_weights":[5.2802274E-3,-5.077705E-1,2.7724656E-1,-8.1997055E-1,-3.417296E-1,7.547732E-2,5.131404E-1,-1.0165942E0,-7.1502244E-1,-4.842979E-1,-2.2010486E-1,2.1750689E-1,-7.0126444E-2,6.024212E-1,2.2104397E-1,-9.064E-2,-1.1306063E-1,-5.7314247E-2,-8.080077E-2,-3.4931876E-2,-5.8945686E-2,-2.8552428E-2,-3.4810768E-3,1.3795177E-2,3.6651503E-2,9.826137E-3,-1.7583357E-2,5.0481167E-2,7.9279795E-2,9.710369E-3,5.180938E-2],"categories":[],"categories_nodes":[],"categories_segments":[],"categories_sizes":[],"default_left":[0,0,0,0,0,0,0,0,0,0,0,0,0,0,0,0,0,0,0,0,0,0,0,0,0,0,0,0,0,0,0],"id":4,"left_children":[1,3,5,7,9,11,13,15,17,19,21,23,25,27,29,-1,-1,-1,-1,-1,-1,-1,-1,-1,-1,-1,-1,-1,-1,-1,-1],"loss_changes":[3.6267895E4,4.6674434E3,8.085285E3,6.4366797E2,1.0191743E3,1.8935386E3,2.0420645E3,1.3457715E2,2.6807617E2,3.837212E2,3.8458496E2,5.4935376E2,8.0482886E2,1.1137773E3,6.7498914E2,0E0,0E0,0E0,0E0,0E0,0E0,0E0,0E0,0E0,0E0,0E0,0E0,0E0,0E0,0E0,0E0],"parents":[2147483647,0,0,1,1,2,2,3,3,4,4,5,5,6,6,7,7,8,8,9,9,10,10,11,11,12,12,13,13,14,14],"right_children":[2,4,6,8,10,12,14,16,18,20,22,24,26,28,30,-1,-1,-1,-1,-1,-1,-1,-1,-1,-1,-1,-1,-1,-1,-1,-1],"split_conditions":[1.08E2,6E1,1.8E2,6.92E0,1E0,3.18093E3,1.8117E4,1.1356E4,3.77929E3,3.77929E3,2.288E1,1.599E1,1E0,2.52E2,2.52E2,-9.064E-2,-1.1306063E-1,-5.7314247E-2,-8.080077E-2,-3.4931876E-2,-5.8945686E-2,-2.8552428E-2,-3.4810768E-3,1.3795177E-2,3.6651503E-2,9.826137E-3,-1.7583357E-2,5.0481167E-2,7.9279795E-2,9.710369E-3,5.180938E-2],"split_indices":[33,33,33,3,8,35,25,25,35,35,11,3,21,33,33,0,0,0,0,0,0,0,0,0,0,0,0,0,0,0,0],"split_type":[0,0,0,0,0,0,0,0,0,0,0,0,0,0,0,0,0,0,0,0,0,0,0,0,0,0,0,0,0,0,0],"sum_hessian":[2.5992031E5,9.004786E4,1.6987245E5,3.1261055E4,5.8786805E4,9.1560125E4,7.8312336E4,1.0872921E4,2.0388133E4,2.706054E4,3.1726266E4,4.6348438E4,4.521169E4,5.9977695E4,1.8334635E4,5.538143E3,5.334778E3,8.0775166E3,1.2310616E4,1.1853877E4,1.5206662E4,2.3447037E4,8.279229E3,3.021863E4,1.6129806E4,1.743634E4,2.777535E4,3.9653793E4,2.0323906E4,1.2938757E4,5.3958784E3],"tree_param":{"num_deleted":"0","num_feature":"37","num_nodes":"31","size_leaf_vector":"1"}},{"base_weights":[-4.6659657E-3,-5.071203E-1,2.3360868E-1,-8.340401E-1,-3.8738972E-1,1.1157589E-1,5.786978E-1,-1.0149703E0,-7.526562E-1,-4.9912927E-1,-2.581833E-1,-8.224124E-3,2.8597057E-1,7.4898446E-1,4.7069815E-1,-8.9813106E-2,-1.1121483E-1,-3.7064716E-2,-7.908591E-2,-6.102089E-2,-3.8182292E-2,-1.745734E-2,-4.6973526E-2,1.0968658E-2,-1.2839395E-2,1.4157179E-2,3.915892E-2,6.6821024E-2,8.670039E-2,3.670118E-2,6.5148E-2],"categories":[],"categories_nodes":[],"categories_segments":[],"categories_sizes":[],"default_left":[0,0,0,0,0,0,0,0,0,0,0,0,0,0,0,0,0,0,0,0,0,0,0,0,0,0,0,0,0,0,0],"id":5,"left_children":[1,3,5,7,9,11,13,15,17,19,21,23,25,27,29,-1,-1,-1,-1,-1,-1,-1,-1,-1,-1,-1,-1,-1,-1,-1,-1],"loss_changes":[3.0831201E4,3.2418633E3,7.356201E3,3.2542676E2,8.7518066E2,2.696209E3,8.385576E2,7.615576E1,2.2303613E2,4.2320215E2,4.9729895E2,1.084007E3,8.013633E2,1.6763965E2,5.230552E2,0E0,0E0,0E0,0E0,0E0,0E0,0E0,0E0,0E0,0E0,0E0,0E0,0E0,0E0,0E0,0E0],"parents":[2147483647,0,0,1,1,2,2,3,3,4,4,5,5,6,6,7,7,8,8,9,9,10,10,11,11,12,12,13,13,14,14],"right_children":[2,4,6,8,10,12,14,16,18,20,22,24,26,28,30,-1,-1,-1,-1,-1,-1,-1,-1,-1,-1,-1,-1,-1,-1,-1,-1],"split_conditions":[1E1,5E0,2.16E2,6.49E0,8E0,3.13231E2,1E0,5.50459E3,3.7E4,1E0,1.153E1,6.171E3,1E0,4.98143E2,4.79092E2,-8.9813106E-2,-1.1121483E-1,-3.7064716E-2,-7.908591E-2,-6.102089E-2,-3.8182292E-2,-1.745734E-2,-4.6973526E-2,1.0968658E-2,-1.2839395E-2,1.4157179E-2,3.915892E-2,6.6821024E-2,8.670039E-2,3.670118E-2,6.5148E-2],"split_indices":[6,6,33,3,6,32,21,35,9,8,3,25,8,32,32,0,0,0,0,0,0,0,0,0,0,0,0,0,0,0,0],"split_type":[0,0,0,0,0,0,0,0,0,0,0,0,0,0,0,0,0,0,0,0,0,0,0,0,0,0,0,0,0,0,0],"sum_hessian":[2.5751903E5,8.283693E4,1.746821E5,2.2202348E4,6.063458E4,1.2904941E5,4.5632688E4,6.8812417E3,1.5321106E4,3.2512008E4,2.812257E4,7.649989E4,5.254952E4,1.7704908E4,2.792778E4,3.1338396E3,3.747402E3,1.3948381E3,1.3926269E4,1.6694895E4,1.5817113E4,2.0158963E4,7.963607E3,3.8612984E4,3.788691E4,2.2201271E4,3.0348248E4,1.0518922E4,7.1859863E3,1.7752184E4,1.0175597E4],"tree_param":{"num_deleted":"0","num_feature":"37","num_nodes":"31","size_leaf_vector":"1"}},{"base_weights":[-8.409283E-4,-3.5677922E-1,2.822831E-1,-5.834327E-1,-1.5087865E-1,1.0295632E-1,4.5079955E-1,-7.719743E-1,-4.5659262E-1,-7.912731E-2,-3.3522964E-1,-1.2482347E-2,2.2947168E-1,2.9504427E-1,5.8129555E-1,-3.5897825E-2,-8.082879E-2,-3.3828754E-2,-5.4215647E-2,-1.7341737E-2,2.6579357E-3,-4.5782525E-2,-2.4858331E-2,6.0298406E-3,-1.8739397E-2,-5.7996223E-3,2.753285E-2,5.1121123E-2,1.8033432E-2,6.65866E-2,4.0992107E-2],"categories":[],"categories_nodes":[],"categories_segments":[],"categories_sizes":[],"default_left":[0,0,0,0,0,0,0,0,0,0,0,0,0,0,0,0,0,0,0,0,0,0,0,0,0,0,0,0,0,0,0],"id":6,"left_children":[1,3,5,7,9,11,13,15,17,19,21,23,25,27,29,-1,-1,-1,-1,-1,-1,-1,-1,-1,-1,-1,-1,-1,-1,-1,-1],"loss_changes":[2.5842918E4,5.301869E3,4.3161826E3,1.2925957E3,7.8742896E2,1.0106337E3,1.4963047E3,3.2556543E2,3.2694824E2,4.2717062E2,1.7694263E2,4.606663E2,4.352527E2,8.3229297E2,5.801074E2,0E0,0E0,0E0,0E0,0E0,0E0,0E0,0E0,0E0,0E0,0E0,0E0,0E0,0E0,0E0,0E0],"parents":[2147483647,0,0,1,1,2,2,3,3,4,4,5,5,6,6,7,7,8,8,9,9,10,10,11,11,12,12,13,13,14,14],"right_children":[2,4,6,8,10,12,14,16,18,20,22,24,26,28,30,-1,-1,-1,-1,-1,-1,-1,-1,-1,-1,-1,-1,-1,-1,-1,-1],"split_conditions":[1.2E1,8E0,1.8E2,5E0,1.4204E4,3.0879E2,3.47834E2,3.7E4,6.481E3,1.861E1,1.528E1,2E0,1.6773E2,1E0,1.53583E5,-3.5897825E-2,-8.082879E-2,-3.3828754E-2,-5.4215647E-2,-1.7341737E-2,2.6579357E-3,-4.5782525E-2,-2.4858331E-2,6.0298406E-3,-1.8739397E-2,-5.7996223E-3,2.753285E-2,5.1121123E-2,1.8033432E-2,6.65866E-2,4.0992107E-2],"split_indices":[6,6,33,6,25,32,32,9,25,11,11,21,4,21,28,0,0,0,0,0,0,0,0,0,0,0,0,0,0,0,0],"split_type":[0,0,0,0,0,0,0,0,0,0,0,0,0,0,0,0,0,0,0,0,0,0,0,0,0,0,0,0,0,0,0],"sum_hessian":[2.564386E5,1.1360985E5,1.4282873E5,5.407782E4,5.9532035E4,6.919651E4,7.363223E4,2.1744898E4,3.233292E4,4.28552E4,1.6676836E4,3.618311E4,3.3013395E4,3.357037E4,4.0061855E4,1.7592026E3,1.9985697E4,1.3574295E4,1.8758625E4,2.2650098E4,2.0205104E4,6.9022686E3,9.774566E3,2.5552162E4,1.0630948E4,4.54171E3,2.8471686E4,1.16359375E4,2.1934434E4,2.6820584E4,1.3241271E4],"tree_param":{"num_deleted":"0","num_feature":"37","num_nodes":"31","size_leaf_vector":"1"}},{"base_weights":[-1.0767346E-4,-4.1613373E-1,1.9491622E-1,-7.0914906E-1,-3.1265828E-1,9.380431E-2,4.8744103E-1,-8.954971E-1,-6.2645286E-1,-3.987465E-1,-2.0677832E-1,-1.30525185E-2,2.3916353E-1,3.5872582E-1,6.1394477E-1,-6.0909536E-2,-9.4075635E-2,-2.6337033E-2,-6.639549E-2,-5.248141E-2,-2.7958015E-2,-3.085166E-2,-1.0106935E-2,-1.2868728E-2,9.706398E-3,1.0881382E-2,3.4244623E-2,4.867629E-2,2.2890544E-2,2.2803633E-2,6.422949E-2],"categories":[],"categories_nodes":[],"categories_segments":[],"categories_sizes":[],"default_left":[0,0,0,0,0,0,0,0,0,0,0,0,0,0,0,0,0,0,0,0,0,0,0,0,0,0,0,0,0,0,0],"id":7,"left_children":[1,3,5,7,9,11,13,15,17,19,21,23,25,27,29,-1,-1,-1,-1,-1,-1,-1,-1,-1,-1,-1,-1,-1,-1,-1,-1],"loss_changes":[2.0673691E4,2.4653057E3,5.1311035E3,3.2591992E2,5.476846E2,2.0025117E3,7.251455E2,8.334863E1,1.9989014E2,4.9769287E2,2.8985974E2,9.461547E2,7.3528076E2,3.6699097E2,2.4555078E2,0E0,0E0,0E0,0E0,0E0,0E0,0E0,0E0,0E0,0E0,0E0,0E0,0E0,0E0,0E0,0E0],"parents":[2147483647,0,0,1,1,2,2,3,3,4,4,5,5,6,6,7,7,8,8,9,9,10,10,11,11,12,12,13,13,14,14],"right_children":[2,4,6,8,10,12,14,16,18,20,22,24,26,28,30,-1,-1,-1,-1,-1,-1,-1,-1,-1,-1,-1,-1,-1,-1,-1,-1],"split_conditions":[1E1,5E0,2.16E2,6.49E0,1.996E-1,2.338E-1,1E0,2.64817E3,3.7E4,1.528E1,8E0,2.48999E2,1.4E1,3.6049E3,4.63E-2,-6.0909536E-2,-9.4075635E-2,-2.6337033E-2,-6.639549E-2,-5.248141E-2,-2.7958015E-2,-3.085166E-2,-1.0106935E-2,-1.2868728E-2,9.706398E-3,1.0881382E-2,3.4244623E-2,4.867629E-2,2.2890544E-2,2.2803633E-2,6.422949E-2],"split_indices":[6,6,33,3,30,30,8,35,9,11,6,32,6,35,31,0,0,0,0,0,0,0,0,0,0,0,0,0,0,0,0],"split_type":[0,0,0,0,0,0,0,0,0,0,0,0,0,0,0,0,0,0,0,0,0,0,0,0,0,0,0,0,0,0,0],"sum_hessian":[2.5480202E5,8.132239E4,1.7347962E5,2.1220316E4,6.010207E4,1.2892056E5,4.4559066E4,6.5164517E3,1.4703864E4,3.314622E4,2.6955852E4,7.430161E4,5.4618957E4,2.2090281E4,2.2468787E4,8.9319586E2,5.623256E3,1.3780542E3,1.3325811E4,1.6103407E4,1.7042812E4,1.3733948E4,1.3221903E4,3.6242523E4,3.8059082E4,2.4147406E4,3.0471549E4,1.111876E4,1.0971521E4,1.5389086E3,2.0929877E4],"tree_param":{"num_deleted":"0","num_feature":"37","num_nodes":"31","size_leaf_vector":"1"}},{"base_weights":[-3.6932447E-4,-3.8143498E-1,1.7725772E-1,-5.9604406E-1,-2.6175725E-1,3.8510013E-2,3.5547945E-1,-7.731605E-1,-5.0603527E-1,-2.0329762E-1,-4.3018934E-1,-1.6544402E-1,1.0853182E-1,1.9793789E-1,4.6400076E-1,-6.595253E-2,-8.940687E-2,-6.226782E-2,-3.9693695E-2,-2.395169E-2,8.983554E-3,-5.456685E-2,-3.46747E-2,-4.6631675E-2,-1.1287974E-2,2.8827963E-3,2.3123913E-2,2.3942208E-2,-1.496985E-2,3.368827E-2,5.792732E-2],"categories":[],"categories_nodes":[],"categories_segments":[],"categories_sizes":[],"default_left":[0,0,0,0,0,0,0,0,0,0,0,0,0,0,0,0,0,0,0,0,0,0,0,0,0,0,0,0,0,0,0],"id":8,"left_children":[1,3,5,7,9,11,13,15,17,19,21,23,25,27,29,-1,-1,-1,-1,-1,-1,-1,-1,-1,-1,-1,-1,-1,-1,-1,-1],"loss_changes":[1.7137898E4,2.0671904E3,4.2703086E3,4.5862695E2,5.0871582E2,1.3867737E3,1.2922021E3,1.3218018E2,2.4272998E2,4.074209E2,1.2791724E2,3.9239246E2,7.069645E2,4.4477502E2,6.554717E2,0E0,0E0,0E0,0E0,0E0,0E0,0E0,0E0,0E0,0E0,0E0,0E0,0E0,0E0,0E0,0E0],"parents":[2147483647,0,0,1,1,2,2,3,3,4,4,5,5,6,6,7,7,8,8,9,9,10,10,11,11,12,12,13,13,14,14],"right_children":[2,4,6,8,10,12,14,16,18,20,22,24,26,28,30,-1,-1,-1,-1,-1,-1,-1,-1,-1,-1,-1,-1,-1,-1,-1,-1],"split_conditions":[1E1,6E1,1.8E2,6.92E0,1.7418E4,4.84E-2,7.92E-2,1.1356E4,1.554E1,1.08E2,1.421E1,1.75E-2,1.5E1,3.4344E4,1E0,-6.595253E-2,-8.940687E-2,-6.226782E-2,-3.9693695E-2,-2.395169E-2,8.983554E-3,-5.456685E-2,-3.46747E-2,-4.6631675E-2,-1.1287974E-2,2.8827963E-3,2.3123913E-2,2.3942208E-2,-1.496985E-2,3.368827E-2,5.792732E-2],"split_indices":[6,33,33,3,25,31,31,25,11,33,11,31,6,25,8,0,0,0,0,0,0,0,0,0,0,0,0,0,0,0,0],"split_type":[0,0,0,0,0,0,0,0,0,0,0,0,0,0,0,0,0,0,0,0,0,0,0,0,0,0,0,0,0,0,0],"sum_hessian":[2.5318723E5,8.049594E4,1.726913E5,2.8815428E4,5.168051E4,9.710013E4,7.5591164E4,9.704351E3,1.9111078E4,3.8368082E4,1.3312429E4,2.4815824E4,7.228431E4,3.0834316E4,4.475685E4,5.009293E3,4.6950576E3,9.231626E3,9.879452E3,3.4149023E4,4.2190586E3,5.579567E3,7.7328623E3,3.6883472E3,2.1127477E4,4.3822266E4,2.8462043E4,2.7547623E4,3.2866934E3,2.1288525E4,2.3468326E4],"tree_param":{"num_deleted":"0","num_feature":"37","num_nodes":"31","size_leaf_vector":"1"}},{"base_weights":[1.099309E-3,-2.3624294E-1,2.4145383E-1,-4.858477E-1,-1.2077989E-1,1.5230468E-1,4.2006433E-1,-6.7440057E-1,-3.9210683E-1,-7.51921E-2,-3.3631E-1,-1.7184536E-1,1.9003537E-1,4.94571E-1,2.07346E-1,-5.1426638E-2,-7.3920816E-2,-2.9039621E-2,-4.8029345E-2,-1.928746E-2,-3.9374667E-5,-6.73356E-2,-3.1460308E-2,-1.0529342E-2,-4.8961133E-2,2.8654698E-2,9.962252E-3,4.217238E-2,6.20165E-2,3.135094E-2,-6.944625E-4],"categories":[],"categories_nodes":[],"categories_segments":[],"categories_sizes":[],"default_left":[0,0,0,0,0,0,0,0,0,0,0,0,0,0,0,0,0,0,0,0,0,0,0,0,0,0,0,0,0,0,0],"id":9,"left_children":[1,3,5,7,9,11,13,15,17,19,21,23,25,27,29,-1,-1,-1,-1,-1,-1,-1,-1,-1,-1,-1,-1,-1,-1,-1,-1],"loss_changes":[1.4383176E4,3.6560278E3,1.9945576E3,7.0864355E2,8.5221814E2,1.0221084E3,6.608086E2,1.3748096E2,2.4013965E2,6.302472E2,1.1036682E2,1.8417682E2,6.5310986E2,2.8206543E2,2.4621094E2,0E0,0E0,0E0,0E0,0E0,0E0,0E0,0E0,0E0,0E0,0E0,0E0,0E0,0E0,0E0,0E0],"parents":[2147483647,0,0,1,1,2,2,3,3,4,4,5,5,6,6,7,7,8,8,9,9,10,10,11,11,12,12,13,13,14,14],"right_children":[2,4,6,8,10,12,14,16,18,20,22,24,26,28,30,-1,-1,-1,-1,-1,-1,-1,-1,-1,-1,-1,-1,-1,-1,-1,-1],"split_conditions":[1.3E1,7E0,2.4E2,4E0,2.1263E4,7.69E-2,3E0,3.49406E3,4.12371E3,1.667E-1,1.523E2,2.2458E4,1E0,2.414E1,5.50459E3,-5.1426638E-2,-7.3920816E-2,-2.9039621E-2,-4.8029345E-2,-1.928746E-2,-3.9374667E-5,-6.73356E-2,-3.1460308E-2,-1.0529342E-2,-4.8961133E-2,2.8654698E-2,9.962252E-3,4.217238E-2,6.20165E-2,3.135094E-2,-6.944625E-4],"split_indices":[6,6,33,6,25,30,21,35,35,30,4,25,21,11,35,0,0,0,0,0,0,0,0,0,0,0,0,0,0,0,0],"split_type":[0,0,0,0,0,0,0,0,0,0,0,0,0,0,0,0,0,0,0,0,0,0,0,0,0,0,0,0,0,0,0],"sum_hessian":[2.5212772E5,1.2685881E5,1.2526891E5,4.0120664E4,8.673815E4,8.3563766E4,4.170514E4,1.33187E4,2.6801965E4,7.159702E4,1.5141125E4,8.711848E3,7.4851914E4,3.088479E4,1.0820351E4,3.8423782E3,9.476322E3,1.2450587E4,1.4351378E4,2.7821486E4,4.3775535E4,9.125054E2,1.422862E4,7.2054277E3,1.5064202E3,3.620277E4,3.8649145E4,1.9552584E4,1.1332206E4,7.235052E3,3.585299E3],"tree_param":{"num_deleted":"0","num_feature":"37","num_nodes":"31","size_leaf_vector":"1"}},{"base_weights":[-5.009488E-4,-2.1401551E-1,2.159465E-1,-4.0458575E-1,-8.400964E-2,9.389237E-2,3.35235E-1,-6.2362975E-1,-3.3013248E-1,-1.7635301E-1,1.3401729E-2,-2.0759962E-1,1.3489643E-1,2.5412953E-1,4.945206E-1,-3.6948346E-2,-6.749059E-2,-2.3415022E-2,-4.1603345E-2,-5.3596976E-3,-2.614047E-2,-9.120623E-3,9.717293E-3,-2.925013E-2,-4.139423E-3,1.7133508E-2,-7.912382E-3,2.9962128E-2,8.806949E-3,4.3508437E-2,6.0616262E-2],"categories":[],"categories_nodes":[],"categories_segments":[],"categories_sizes":[],"default_left":[0,0,0,0,0,0,0,0,0,0,0,0,0,0,0,0,0,0,0,0,0,0,0,0,0,0,0,0,0,0,0],"id":10,"left_children":[1,3,5,7,9,11,13,15,17,19,21,23,25,27,29,-1,-1,-1,-1,-1,-1,-1,-1,-1,-1,-1,-1,-1,-1,-1,-1],"loss_changes":[1.1569211E4,3.1221572E3,1.8099106E3,8.3305566E2,6.739119E2,7.5969617E2,8.119448E2,1.6841895E2,3.1431787E2,4.0151196E2,3.1952396E2,1.037966E2,4.2187152E2,3.1467334E2,1.4020703E2,0E0,0E0,0E0,0E0,0E0,0E0,0E0,0E0,0E0,0E0,0E0,0E0,0E0,0E0,0E0,0E0],"parents":[2147483647,0,0,1,1,2,2,3,3,4,4,5,5,6,6,7,7,8,8,9,9,10,10,11,11,12,12,13,13,14,14],"right_children":[2,4,6,8,10,12,14,16,18,20,22,24,26,28,30,-1,-1,-1,-1,-1,-1,-1,-1,-1,-1,-1,-1,-1,-1,-1,-1],"split_conditions":[1.3E1,8E0,2.459E-1,4E0,1.996E-1,6.9E-2,5E0,2.60521E3,4.06174E3,1E0,1E0,5E0,4E0,3E0,2.399E1,-3.6948346E-2,-6.749059E-2,-2.3415022E-2,-4.1603345E-2,-5.3596976E-3,-2.614047E-2,-9.120623E-3,9.717293E-3,-2.925013E-2,-4.139423E-3,1.7133508E-2,-7.912382E-3,2.9962128E-2,8.806949E-3,4.3508437E-2,6.0616262E-2],"split_indices":[6,6,30,6,30,30,5,35,35,21,8,22,21,21,3,0,0,0,0,0,0,0,0,0,0,0,0,0,0,0,0],"split_type":[0,0,0,0,0,0,0,0,0,0,0,0,0,0,0,0,0,0,0,0,0,0,0,0,0,0,0,0,0,0,0],"sum_hessian":[2.5033223E5,1.2601992E5,1.2431231E5,5.1104184E4,7.4915734E4,6.1445656E4,6.286666E4,1.2960173E4,3.814401E4,3.8457465E4,3.645827E4,7.355378E3,5.4090277E4,4.1659535E4,2.1207125E4,2.1785854E3,1.0781588E4,1.8018414E4,2.0125598E4,1.5741231E4,2.2716234E4,1.6212719E4,2.0245553E4,4.867449E3,2.4879287E3,4.6221156E4,7.8691196E3,3.2699873E4,8.959664E3,1.3845705E4,7.361419E3],"tree_param":{"num_deleted":"0","num_feature":"37","num_nodes":"31","size_leaf_vector":"1"}},{"base_weights":[-2.1583994E-3,-2.9289305E-1,1.30996E-1,-5.233756E-1,-2.1759577E-1,3.4482576E-2,2.9920548E-1,-4.2338598E-1,-6.8721676E-1,-3.053824E-1,-1.31665E-1,-8.9665934E-2,1.23417616E-1,1.9084588E-1,4.1167092E-1,-5.045209E-2,-2.909641E-2,-7.532734E-2,-4.484568E-2,-3.6288153E-2,-1.79006E-2,-1.7911617E-2,1.7132213E-3,-2.7632082E-3,-2.5183802E-2,2.453856E-3,2.0326024E-2,7.563386E-3,2.8412655E-2,-1.16110435E-2,4.350621E-2],"categories":[],"categories_nodes":[],"categories_segments":[],"categories_sizes":[],"default_left":[0,0,0,0,0,0,0,0,0,0,0,0,0,0,0,0,0,0,0,0,0,0,0,0,0,0,0,0,0,0,0],"id":11,"left_children":[1,3,5,7,9,11,13,15,17,19,21,23,25,27,29,-1,-1,-1,-1,-1,-1,-1,-1,-1,-1,-1,-1,-1,-1,-1,-1],"loss_changes":[9.632677E3,1.3562573E3,2.7706035E3,3.1471143E2,4.4437622E2,1.1973739E3,7.5810596E2,1.2817285E2,1.14312744E2,2.1163916E2,2.1025342E2,4.553371E2,4.9881E2,3.4055725E2,3.7700732E2,0E0,0E0,0E0,0E0,0E0,0E0,0E0,0E0,0E0,0E0,0E0,0E0,0E0,0E0,0E0,0E0],"parents":[2147483647,0,0,1,1,2,2,3,3,4,4,5,5,6,6,7,7,8,8,9,9,10,10,11,11,12,12,13,13,14,14],"right_children":[2,4,6,8,10,12,14,16,18,20,22,24,26,28,30,-1,-1,-1,-1,-1,-1,-1,-1,-1,-1,-1,-1,-1,-1,-1,-1],"split_conditions":[1E1,5E0,3.64999E2,1.4814E4,1E0,1.818E-1,1.9E1,1.24456E2,1.41187E2,2.14E1,2.31E1,2E0,1E0,1E0,1.4864E2,-5.045209E-2,-2.909641E-2,-7.532734E-2,-4.484568E-2,-3.6288153E-2,-1.79006E-2,-1.7911617E-2,1.7132213E-3,-2.7632082E-3,-2.5183802E-2,2.453856E-3,2.0326024E-2,7.563386E-3,2.8412655E-2,-1.16110435E-2,4.350621E-2],"split_indices":[6,6,32,25,8,30,6,32,32,11,11,10,8,8,4,0,0,0,0,0,0,0,0,0,0,0,0,0,0,0,0],"split_type":[0,0,0,0,0,0,0,0,0,0,0,0,0,0,0,0,0,0,0,0,0,0,0,0,0,0,0,0,0,0,0],"sum_hessian":[2.4882138E5,7.816041E4,1.7066097E5,1.9243814E4,5.8916594E4,1.08442445E5,6.2218523E4,1.1955024E4,7.2887896E3,2.9141064E4,2.9775531E4,4.52608E4,6.3181645E4,3.1690428E4,3.0528096E4,7.4095635E3,4.545461E3,5.705864E3,1.5829259E3,2.0025885E4,9.115181E3,2.2575756E4,7.199774E3,3.2739623E4,1.2521177E4,2.8227113E4,3.495453E4,1.4180076E4,1.7510352E4,1.2952424E3,2.9232854E4],"tree_param":{"num_deleted":"0","num_feature":"37","num_nodes":"31","size_leaf_vector":"1"}},{"base_weights":[-1.569467E-3,-1.6718939E-1,2.0604852E-1,-3.2844606E-1,-4.757467E-2,2.5356334E-1,-2.4647957E-2,-5.507881E-1,-2.7400526E-1,-1.6296297E-1,3.1379912E-2,2.0346239E-1,4.384596E-1,-1.0732287E-1,1.6270505E-1,-3.4583546E-2,-6.269544E-2,-1.9095546E-2,-3.8347512E-2,-3.0492395E-2,-1.098105E-2,8.104062E-3,-1.0493308E-2,1.4594016E-2,3.2124836E-2,3.7518766E-2,5.761559E-2,-3.5936807E-3,-2.1826198E-2,-3.204149E-2,1.9583559E-2],"categories":[],"categories_nodes":[],"categories_segments":[],"categories_sizes":[],"default_left":[0,0,0,0,0,0,0,0,0,0,0,0,0,0,0,0,0,0,0,0,0,0,0,0,0,0,0,0,0,0,0],"id":12,"left_children":[1,3,5,7,9,11,13,15,17,19,21,23,25,27,29,-1,-1,-1,-1,-1,-1,-1,-1,-1,-1,-1,-1,-1,-1,-1,-1],"loss_changes":[8.514106E3,2.6566724E3,1.2043784E3,7.097031E2,7.204586E2,8.437964E2,2.9071768E2,1.796372E2,4.2827148E2,2.4235352E2,3.178672E2,4.8561133E2,1.6878052E2,1.03111984E2,9.210553E1,0E0,0E0,0E0,0E0,0E0,0E0,0E0,0E0,0E0,0E0,0E0,0E0,0E0,0E0,0E0,0E0],"parents":[2147483647,0,0,1,1,2,2,3,3,4,4,5,5,6,6,7,7,8,8,9,9,10,10,11,11,12,12,13,13,14,14],"right_children":[2,4,6,8,10,12,14,16,18,20,22,24,26,28,30,-1,-1,-1,-1,-1,-1,-1,-1,-1,-1,-1,-1,-1,-1,-1,-1],"split_conditions":[1.2E2,9E0,2.214E4,7.24E0,1E0,2.52E2,2E1,4.601E3,8.71E3,1.136E-1,2E0,2.427E1,2.609E1,4E0,8.06E-2,-3.4583546E-2,-6.269544E-2,-1.9095546E-2,-3.8347512E-2,-3.0492395E-2,-1.098105E-2,8.104062E-3,-1.0493308E-2,1.4594016E-2,3.2124836E-2,3.7518766E-2,5.761559E-2,-3.5936807E-3,-2.1826198E-2,-3.204149E-2,1.9583559E-2],"split_indices":[33,6,25,3,8,33,6,25,25,30,10,11,11,21,30,0,0,0,0,0,0,0,0,0,0,0,0,0,0,0,0],"split_type":[0,0,0,0,0,0,0,0,0,0,0,0,0,0,0,0,0,0,0,0,0,0,0,0,0,0,0,0,0,0,0],"sum_hessian":[2.476022E5,1.3773186E5,1.0987034E5,5.865439E4,7.907747E4,9.110577E4,1.8764568E4,1.15332295E4,4.712116E4,3.212549E4,4.6951977E4,7.16855E4,1.942027E4,1.301998E4,5.7445874E3,3.1278145E3,8.405415E3,2.679699E4,2.032417E4,8.74899E3,2.33765E4,3.441495E4,1.2537029E4,4.8167023E4,2.3518479E4,1.3311181E4,6.1090884E3,7.923858E3,5.0961226E3,3.6754767E2,5.3770396E3],"tree_param":{"num_deleted":"0","num_feature":"37","num_nodes":"31","size_leaf_vector":"1"}},{"base_weights":[-1.5613446E-3,-1.4825374E-1,1.8288243E-1,-3.2991165E-1,-5.5076074E-2,2.8563285E-1,8.759413E-2,-4.1448018E-1,-2.1125698E-1,2.1552263E-2,-1.5566164E-1,2.0941423E-1,4.296128E-1,1.6331458E-1,-3.437413E-2,-2.7808666E-2,-4.865876E-2,-3.5417546E-3,-2.7297113E-2,7.249587E-3,-1.1370165E-2,-2.3476139E-2,-6.308274E-3,-1.8731294E-3,2.4827547E-2,5.094221E-2,3.2345414E-2,1.1466201E-2,3.315602E-2,3.1848252E-3,-1.8497413E-2],"categories":[],"categories_nodes":[],"categories_segments":[],"categories_sizes":[],"default_left":[0,0,0,0,0,0,0,0,0,0,0,0,0,0,0,0,0,0,0,0,0,0,0,0,0,0,0,0,0,0,0],"id":13,"left_children":[1,3,5,7,9,11,13,15,17,19,21,23,25,27,29,-1,-1,-1,-1,-1,-1,-1,-1,-1,-1,-1,-1,-1,-1,-1,-1],"loss_changes":[6.6564795E3,2.3194744E3,1.0670298E3,4.6601123E2,6.9815576E2,5.7528564E2,5.2227454E2,2.664873E2,2.098233E2,3.5427097E2,2.867871E2,3.040431E2,1.5343872E2,2.855174E2,2.160466E2,0E0,0E0,0E0,0E0,0E0,0E0,0E0,0E0,0E0,0E0,0E0,0E0,0E0,0E0,0E0,0E0],"parents":[2147483647,0,0,1,1,2,2,3,3,4,4,5,5,6,6,7,7,8,8,9,9,10,10,11,11,12,12,13,13,14,14],"right_children":[2,4,6,8,10,12,14,16,18,20,22,24,26,28,30,-1,-1,-1,-1,-1,-1,-1,-1,-1,-1,-1,-1,-1,-1,-1,-1],"split_conditions":[1.2E2,8E0,7.416E3,1.4376E2,7.41E3,2.4E2,4.92449E3,4.797E3,3.969E3,2E0,2.47343E2,1.8336E2,3.23149E3,2.52E2,4E0,-2.7808666E-2,-4.865876E-2,-3.5417546E-3,-2.7297113E-2,7.249587E-3,-1.1370165E-2,-2.3476139E-2,-6.308274E-3,-1.8731294E-3,2.4827547E-2,5.094221E-2,3.2345414E-2,1.1466201E-2,3.315602E-2,3.1848252E-3,-1.8497413E-2],"split_indices":[33,6,25,32,25,33,35,25,25,10,32,4,35,33,21,0,0,0,0,0,0,0,0,0,0,0,0,0,0,0,0],"split_type":[0,0,0,0,0,0,0,0,0,0,0,0,0,0,0,0,0,0,0,0,0,0,0,0,0,0,0,0,0,0,0],"sum_hessian":[2.4601742E5,1.3703261E5,1.08984805E5,4.6456527E4,9.0576086E4,5.243721E4,5.6547598E4,2.7121373E4,1.9335152E4,5.1411348E4,3.9164742E4,3.4290023E4,1.8147188E4,3.488783E4,2.1659773E4,9.382942E3,1.773843E4,5.023906E3,1.4311246E4,3.7345887E4,1.4065461E4,2.1118203E4,1.8046541E4,4.9908594E3,2.9299164E4,1.0354871E4,7.7923154E3,2.7064725E4,7.8231016E3,1.5045492E4,6.614281E3],"tree_param":{"num_deleted":"0","num_feature":"37","num_nodes":"31","size_leaf_vector":"1"}},{"base_weights":[-4.9950165E-4,-2.630442E-1,8.800728E-2,-4.3148428E-1,-1.9374014E-1,3.513126E-3,2.1690507E-1,-3.1999853E-1,-5.583435E-1,-2.4787734E-1,-7.554657E-2,4.9646113E-2,-1.2876165E-1,1.181667E-1,3.214474E-1,-3.599577E-2,8.772098E-3,-2.8307388E-2,-6.1953276E-2,-5.623972E-3,-2.8040564E-2,-1.8275728E-2,4.3142326E-3,1.0641686E-2,-6.57065E-3,-2.0207718E-2,-1.5385153E-3,-6.52627E-3,1.8779075E-2,2.5764508E-2,4.5209218E-2],"categories":[],"categories_nodes":[],"categories_segments":[],"categories_sizes":[],"default_left":[0,0,0,0,0,0,0,0,0,0,0,0,0,0,0,0,0,0,0,0,0,0,0,0,0,0,0,0,0,0,0],"id":14,"left_children":[1,3,5,7,9,11,13,15,17,19,21,23,25,27,29,-1,-1,-1,-1,-1,-1,-1,-1,-1,-1,-1,-1,-1,-1,-1,-1],"loss_changes":[5.7029814E3,7.2215625E2,1.9990626E3,2.5472437E2,2.804989E2,6.765919E2,7.5013135E2,1.5653772E2,1.4170044E2,1.8740747E2,1.753115E2,5.383494E2,2.3831094E2,4.774043E2,2.9401074E2,0E0,0E0,0E0,0E0,0E0,0E0,0E0,0E0,0E0,0E0,0E0,0E0,0E0,0E0,0E0,0E0],"parents":[2147483647,0,0,1,1,2,2,3,3,4,4,5,5,6,6,7,7,8,8,9,9,10,10,11,11,12,12,13,13,14,14],"right_children":[2,4,6,8,10,12,14,16,18,20,22,24,26,28,30,-1,-1,-1,-1,-1,-1,-1,-1,-1,-1,-1,-1,-1,-1,-1,-1],"split_conditions":[9E0,5E0,1.8E2,5.39745E3,6E0,2E0,1E0,1E1,3.1E1,3.8E4,1E0,2E0,5E0,2.45653E2,4.62108E2,-3.599577E-2,8.772098E-3,-2.8307388E-2,-6.1953276E-2,-5.623972E-3,-2.8040564E-2,-1.8275728E-2,4.3142326E-3,1.0641686E-2,-6.57065E-3,-2.0207718E-2,-1.5385153E-3,-6.52627E-3,1.8779075E-2,2.5764508E-2,4.5209218E-2],"split_indices":[6,6,33,35,22,10,8,22,14,9,8,21,22,32,32,0,0,0,0,0,0,0,0,0,0,0,0,0,0,0,0],"split_type":[0,0,0,0,0,0,0,0,0,0,0,0,0,0,0,0,0,0,0,0,0,0,0,0,0,0,0,0,0,0,0],"sum_hessian":[2.454229E5,6.1874805E4,1.835481E5,1.8033885E4,4.384092E4,1.1087208E5,7.2676016E4,9.602296E3,8.431589E3,3.006692E4,1.3774E4,8.2203516E4,2.8668568E4,3.7377703E4,3.5298312E4,8.745422E3,8.5687396E2,1.5354354E3,6.896154E3,4.363746E3,2.5703174E4,7.2363687E3,6.5376313E3,5.5090766E4,2.7112744E4,1.740923E4,1.1259338E4,1.0283977E4,2.7093729E4,2.372016E4,1.1578151E4],"tree_param":{"num_deleted":"0","num_feature":"37","num_nodes":"31","size_leaf_vector":"1"}},{"base_weights":[-1.2534283E-3,-1.9671959E-1,9.727166E-2,-3.9305177E-1,-1.4226107E-1,4.5013684E-3,1.8704686E-1,-4.3388194E-1,-1.18168175E-1,-1.8128626E-1,1.2546624E-2,-8.897913E-2,9.890197E-2,1.1758385E-1,3.002483E-1,-6.0560424E-2,-3.6584463E-2,-5.6073826E-2,9.448568E-3,-8.041176E-3,-2.4116796E-2,1.25169605E-2,-1.2170689E-2,4.288243E-4,-1.688539E-2,-1.3502955E-2,1.33423675E-2,2.0485379E-2,4.738364E-3,3.6858626E-2,2.1531418E-2],"categories":[],"categories_nodes":[],"categories_segments":[],"categories_sizes":[],"default_left":[0,0,0,0,0,0,0,0,0,0,0,0,0,0,0,0,0,0,0,0,0,0,0,0,0,0,0,0,0,0,0],"id":15,"left_children":[1,3,5,7,9,11,13,15,17,19,21,23,25,27,29,-1,-1,-1,-1,-1,-1,-1,-1,-1,-1,-1,-1,-1,-1,-1,-1],"loss_changes":[4.6950034E3,8.73437E2,1.3499552E3,1.9900415E2,3.8643274E2,7.0348975E2,6.476653E2,1.8001025E2,2.162879E2,3.0854492E2,1.9477466E2,2.9839786E2,3.203532E2,3.127478E2,1.8165112E2,0E0,0E0,0E0,0E0,0E0,0E0,0E0,0E0,0E0,0E0,0E0,0E0,0E0,0E0,0E0,0E0],"parents":[2147483647,0,0,1,1,2,2,3,3,4,4,5,5,6,6,7,7,8,8,9,9,10,10,11,11,12,12,13,13,14,14],"right_children":[2,4,6,8,10,12,14,16,18,20,22,24,26,28,30,-1,-1,-1,-1,-1,-1,-1,-1,-1,-1,-1,-1,-1,-1,-1,-1],"split_conditions":[1.08E2,5E0,2.333E-1,9E0,7E0,2.68459E2,1.786E1,6.49E0,2.13E1,2.89017E3,6.589E3,1E0,7.2E-2,5.302E3,7.416E3,-6.0560424E-2,-3.6584463E-2,-5.6073826E-2,9.448568E-3,-8.041176E-3,-2.4116796E-2,1.25169605E-2,-1.2170689E-2,4.288243E-4,-1.688539E-2,-1.3502955E-2,1.33423675E-2,2.0485379E-2,4.738364E-3,3.6858626E-2,2.1531418E-2],"split_indices":[33,6,30,22,22,32,3,3,26,35,25,10,30,25,25,0,0,0,0,0,0,0,0,0,0,0,0,0,0,0,0],"split_type":[0,0,0,0,0,0,0,0,0,0,0,0,0,0,0,0,0,0,0,0,0,0,0,0,0,0,0,0,0,0,0],"sum_hessian":[2.4378689E5,8.169947E4,1.6208742E5,1.7738115E4,6.3961355E4,7.971502E4,8.23724E4,1.54431E4,2.295016E3,5.1083473E4,1.2877882E4,4.005276E4,3.966226E4,5.1050633E4,3.1321764E4,4.377852E3,1.1065247E4,7.437882E2,1.5512278E3,1.9030344E4,3.205313E4,7.003174E3,5.8747075E3,1.8478207E4,2.1574555E4,5.0996123E3,3.456265E4,2.2756666E4,2.8293967E4,1.7352928E4,1.3968836E4],"tree_param":{"num_deleted":"0","num_feature":"37","num_nodes":"31","size_leaf_vector":"1"}},{"base_weights":[1.2812595E-3,-1.1177145E-1,1.4734933E-1,-2.5422466E-1,-4.1825425E-2,7.055844E-2,2.3835683E-1,-7.89042E-2,-3.146633E-1,8.7512344E-2,-9.461977E-2,-1.2936893E-1,1.06161885E-1,2.0438692E-1,4.1619727E-1,-3.5631653E-2,-1.6839579E-3,-4.951567E-2,-2.598456E-2,1.1693991E-2,-2.6769638E-2,-1.3452205E-2,5.57479E-3,-4.561359E-2,-8.296044E-3,4.7486057E-3,2.2456562E-2,2.6063353E-2,9.328092E-3,4.5577537E-2,3.018928E-2],"categories":[],"categories_nodes":[],"categories_segments":[],"categories_sizes":[],"default_left":[0,0,0,0,0,0,0,0,0,0,0,0,0,0,0,0,0,0,0,0,0,0,0,0,0,0,0,0,0,0,0],"id":16,"left_children":[1,3,5,7,9,11,13,15,17,19,21,23,25,27,29,-1,-1,-1,-1,-1,-1,-1,-1,-1,-1,-1,-1,-1,-1,-1,-1],"loss_changes":[4.0127612E3,1.3648619E3,7.408887E2,4.7793457E2,6.273575E2,4.093455E2,2.9293604E2,1.9913913E2,3.3164062E2,2.7844806E2,3.9147577E2,1.3175652E2,3.3910034E2,2.54552E2,3.4917847E1,0E0,0E0,0E0,0E0,0E0,0E0,0E0,0E0,0E0,0E0,0E0,0E0,0E0,0E0,0E0,0E0],"parents":[2147483647,0,0,1,1,2,2,3,3,4,4,5,5,6,6,7,7,8,8,9,9,10,10,11,11,12,12,13,13,14,14],"right_children":[2,4,6,8,10,12,14,16,18,20,22,24,26,28,30,-1,-1,-1,-1,-1,-1,-1,-1,-1,-1,-1,-1,-1,-1,-1,-1],"split_conditions":[1.4E1,1.38627E2,2.667E-1,2.434E3,3.815E3,8.33E-2,2.299E1,1E-1,7.35E0,1.409E1,6E1,3.08E-2,4.04581E2,1.742E4,1.9605E4,-3.5631653E-2,-1.6839579E-3,-4.951567E-2,-2.598456E-2,1.1693991E-2,-2.6769638E-2,-1.3452205E-2,5.57479E-3,-4.561359E-2,-8.296044E-3,4.7486057E-3,2.2456562E-2,2.6063353E-2,9.328092E-3,4.5577537E-2,3.018928E-2],"split_indices":[6,32,30,25,25,30,3,30,3,3,2,30,32,18,18,0,0,0,0,0,0,0,0,0,0,0,0,0,0,0,0],"split_type":[0,0,0,0,0,0,0,0,0,0,0,0,0,0,0,0,0,0,0,0,0,0,0,0,0,0,0,0,0,0,0],"sum_hessian":[2.4299645E5,1.3697895E5,1.0601751E5,4.510734E4,9.187162E4,5.750181E4,4.8515695E4,1.1564793E4,3.3542547E4,2.6630299E4,6.5241316E4,8.691324E3,4.8810484E4,4.0738414E4,7.7772817E3,2.1125913E3,9.452202E3,7.810278E3,2.5732268E4,2.459412E4,2.0361783E3,5.155946E4,1.3681854E4,1.0786664E3,7.6126577E3,3.2638863E4,1.6171622E4,2.7044592E4,1.3693821E4,5.772552E3,2.0047301E3],"tree_param":{"num_deleted":"0","num_feature":"37","num_nodes":"31","size_leaf_vector":"1"}},{"base_weights":[1.6869626E-3,-1.14417695E-1,1.18628256E-1,-2.5322825E-1,-5.5964965E-2,8.467358E-2,2.8297913E-1,-4.930594E-1,-2.156854E-1,-3.5582528E-2,-3.2726938E-1,1.141447E-1,-7.545579E-2,3.5108858E-1,1.481691E-1,-6.4480856E-2,-4.069914E-2,-2.3621371E-2,1.3631384E-2,1.4262787E-3,-1.4338359E-2,-1.2606494E-2,-4.523855E-2,-2.1117695E-3,1.5156946E-2,-3.8495235E-2,-3.8334436E-3,1.7992517E-2,3.8798988E-2,-2.0921515E-2,1.8070502E-2],"categories":[],"categories_nodes":[],"categories_segments":[],"categories_sizes":[],"default_left":[0,0,0,0,0,0,0,0,0,0,0,0,0,0,0,0,0,0,0,0,0,0,0,0,0,0,0,0,0,0,0],"id":17,"left_children":[1,3,5,7,9,11,13,15,17,19,21,23,25,27,29,-1,-1,-1,-1,-1,-1,-1,-1,-1,-1,-1,-1,-1,-1,-1,-1],"loss_changes":[3.2821313E3,9.841914E2,6.7202747E2,3.2341772E2,4.72004E2,4.7106366E2,1.8922754E2,6.299463E1,2.2465979E2,4.2663647E2,1.5003625E2,4.2675073E2,1.7823566E2,8.637671E1,8.059352E1,0E0,0E0,0E0,0E0,0E0,0E0,0E0,0E0,0E0,0E0,0E0,0E0,0E0,0E0,0E0,0E0],"parents":[2147483647,0,0,1,1,2,2,3,3,4,4,5,5,6,6,7,7,8,8,9,9,10,10,11,11,12,12,13,13,14,14],"right_children":[2,4,6,8,10,12,14,16,18,20,22,24,26,28,30,-1,-1,-1,-1,-1,-1,-1,-1,-1,-1,-1,-1,-1,-1,-1,-1],"split_conditions":[1.3E1,7E0,5.27397E2,6.49E0,1.368E1,2.2458E4,1.0476E4,6.5838E1,1.1E1,1.2468E4,2.64817E3,7.5E3,7.125E3,1.8E1,1.034E-1,-6.4480856E-2,-4.069914E-2,-2.3621371E-2,1.3631384E-2,1.4262787E-3,-1.4338359E-2,-1.2606494E-2,-4.523855E-2,-2.1117695E-3,1.5156946E-2,-3.8495235E-2,-3.8334436E-3,1.7992517E-2,3.8798988E-2,-2.0921515E-2,1.8070502E-2],"split_indices":[6,6,32,3,3,25,25,32,22,25,35,0,0,6,30,0,0,0,0,0,0,0,0,0,0,0,0,0,0,0,0],"split_type":[0,0,0,0,0,0,0,0,0,0,0,0,0,0,0,0,0,0,0,0,0,0,0,0,0,0,0,0,0,0,0],"sum_hessian":[2.4173039E5,1.2129912E5,1.20431266E5,3.594118E4,8.535794E4,9.9813055E4,2.0618215E4,4.861391E3,3.107979E4,7.939542E4,5.962522E3,8.42988E4,1.5514255E4,1.3695628E4,6.9225874E3,1.7546793E3,3.1067117E3,2.9367744E4,1.7120448E3,5.429302E4,2.51024E4,2.2876582E3,3.6748638E3,1.8269424E4,6.6029375E4,1.659506E3,1.3854749E4,2.431072E3,1.1264556E4,5.767319E2,6.3458555E3],"tree_param":{"num_deleted":"0","num_feature":"37","num_nodes":"31","size_leaf_vector":"1"}},{"base_weights":[-2.6658543E-3,-9.806859E-2,1.17714494E-1,-1.9231452E-1,-2.2589646E-2,7.255607E-2,2.3691593E-1,-3.6139467E-1,-1.445407E-1,-6.939697E-2,9.782492E-2,2.7478307E-2,1.9897434E-1,2.884697E-1,9.905304E-2,-4.4762623E-2,-2.7164578E-2,-9.393974E-3,-2.6262416E-2,-2.2710284E-2,-3.5723653E-3,4.7752955E-3,3.3756185E-2,7.387499E-3,-9.352826E-3,2.5615517E-2,9.71815E-3,1.4143701E-2,3.294758E-2,-2.125298E-2,1.2491333E-2],"categories":[],"categories_nodes":[],"categories_segments":[],"categories_sizes":[],"default_left":[0,0,0,0,0,0,0,0,0,0,0,0,0,0,0,0,0,0,0,0,0,0,0,0,0,0,0,0,0,0,0],"id":18,"left_children":[1,3,5,7,9,11,13,15,17,19,21,23,25,27,29,-1,-1,-1,-1,-1,-1,-1,-1,-1,-1,-1,-1,-1,-1,-1,-1],"loss_changes":[2.7672202E3,9.562024E2,5.734098E2,4.8276123E2,4.2072916E2,4.4028522E2,2.0796448E2,1.01667114E2,2.784652E2,2.854304E2,2.507884E2,3.1978696E2,1.1815686E2,1.2833801E2,6.426506E1,0E0,0E0,0E0,0E0,0E0,0E0,0E0,0E0,0E0,0E0,0E0,0E0,0E0,0E0,0E0,0E0],"parents":[2147483647,0,0,1,1,2,2,3,3,4,4,5,5,6,6,7,7,8,8,9,9,10,10,11,11,12,12,13,13,14,14],"right_children":[2,4,6,8,10,12,14,16,18,20,22,24,26,28,30,-1,-1,-1,-1,-1,-1,-1,-1,-1,-1,-1,-1,-1,-1,-1,-1],"split_conditions":[1.2E2,1E0,2.54E1,8.24E0,2.31E1,3.333E-1,1.3606E4,4.72E1,2E0,3.64E-2,1E0,3E0,9E0,9.95E3,7.125E3,-4.4762623E-2,-2.7164578E-2,-9.393974E-3,-2.6262416E-2,-2.2710284E-2,-3.5723653E-3,4.7752955E-3,3.3756185E-2,7.387499E-3,-9.352826E-3,2.5615517E-2,9.71815E-3,1.4143701E-2,3.294758E-2,-2.125298E-2,1.2491333E-2],"split_indices":[33,8,11,3,11,30,25,26,10,31,17,21,7,0,0,0,0,0,0,0,0,0,0,0,0,0,0,0,0,0,0],"split_type":[0,0,0,0,0,0,0,0,0,0,0,0,0,0,0,0,0,0,0,0,0,0,0,0,0,0,0,0,0,0,0],"sum_hessian":[2.409462E5,1.3441847E5,1.0652773E5,5.9776332E4,7.464214E4,7.72612E4,2.9266518E4,1.3166079E4,4.6610254E4,5.3749555E4,2.0892582E4,5.695488E4,2.0306328E4,2.1299424E4,7.9670933E3,6.71055E3,6.455529E3,3.26309E4,1.3979355E4,9.455257E3,4.42943E4,1.7284832E4,3.6077488E3,4.11701E4,1.5784777E4,1.3000456E4,7.3058716E3,4.6467617E3,1.6652664E4,6.094599E2,7.357634E3],"tree_param":{"num_deleted":"0","num_feature":"37","num_nodes":"31","size_leaf_vector":"1"}},{"base_weights":[-1.02135E-3,-1.1790897E-1,8.930043E-2,-2.0810057E-1,-4.147797E-2,2.8148223E-2,1.7808926E-1,-9.61206E-2,-2.6660773E-1,-7.613625E-2,1.6981496E-1,9.983384E-2,-3.0283317E-2,2.7319166E-1,9.854782E-2,-1.470597E-2,5.2234153E-3,-3.0328339E-2,-4.3952903E-3,-1.0727699E-2,1.3088286E-2,2.7536973E-2,9.172637E-3,1.3771935E-2,-2.939985E-4,-2.2230508E-2,-8.986246E-4,-1.1926615E-2,2.8803468E-2,7.032638E-3,2.9386682E-2],"categories":[],"categories_nodes":[],"categories_segments":[],"categories_sizes":[],"default_left":[0,0,0,0,0,0,0,0,0,0,0,0,0,0,0,0,0,0,0,0,0,0,0,0,0,0,0,0,0,0,0],"id":19,"left_children":[1,3,5,7,9,11,13,15,17,19,21,23,25,27,29,-1,-1,-1,-1,-1,-1,-1,-1,-1,-1,-1,-1,-1,-1,-1,-1],"loss_changes":[2.53232E3,7.2071875E2,7.346516E2,3.1415942E2,4.1448706E2,3.3562524E2,4.1738245E2,1.2441652E2,2.5719946E2,3.1348633E2,6.569243E1,1.4010184E2,1.805264E2,1.4646875E2,1.6561664E2,0E0,0E0,0E0,0E0,0E0,0E0,0E0,0E0,0E0,0E0,0E0,0E0,0E0,0E0,0E0,0E0],"parents":[2147483647,0,0,1,1,2,2,3,3,4,4,5,5,6,6,7,7,8,8,9,9,10,10,11,11,12,12,13,13,14,14],"right_children":[2,4,6,8,10,12,14,16,18,20,22,24,26,28,30,-1,-1,-1,-1,-1,-1,-1,-1,-1,-1,-1,-1,-1,-1,-1,-1],"split_conditions":[2.17316E2,9E0,1.8E2,4.665E3,3.333E-1,5.302E3,7.416E3,7E0,2E0,3E0,7.658E3,2E0,1.5487E2,1.5877E2,3.6E2,-1.470597E-2,5.2234153E-3,-3.0328339E-2,-4.3952903E-3,-1.0727699E-2,1.3088286E-2,2.7536973E-2,9.172637E-3,1.3771935E-2,-2.939985E-4,-2.2230508E-2,-8.986246E-4,-1.1926615E-2,2.8803468E-2,7.032638E-3,2.9386682E-2],"split_indices":[32,6,33,25,30,25,25,22,36,36,18,10,4,4,33,0,0,0,0,0,0,0,0,0,0,0,0,0,0,0,0],"split_type":[0,0,0,0,0,0,0,0,0,0,0,0,0,0,0,0,0,0,0,0,0,0,0,0,0,0,0,0,0,0,0],"sum_hessian":[2.398559E5,1.04552E5,1.353039E5,4.7957184E4,5.6594816E4,8.012289E4,5.518101E4,1.645959E4,3.1497594E4,4.8620844E4,7.9739736E3,3.5980043E4,4.4142844E4,2.5129943E4,3.0051068E4,1.2252565E4,4.2070234E3,2.7042443E4,4.45515E3,4.2264234E4,6.3566104E3,3.3885342E3,4.5854395E3,2.62886E4,9.691443E3,4.4051963E3,3.973765E4,9.1528217E2,2.4214662E4,2.6259572E4,3.7914978E3],"tree_param":{"num_deleted":"0","num_feature":"37","num_nodes":"31","size_leaf_vector":"1"}},{"base_weights":[1.2441362E-3,-9.011934E-2,9.697032E-2,-3.0765831E-2,-1.8326293E-1,7.405569E-3,1.444315E-1,-6.893626E-2,1.5733881E-1,-3.6642036E-1,-1.4504261E-1,4.0328033E-2,-2.6853865E-1,1.7495854E-1,-2.7508417E-3,-1.3382891E-2,2.2628438E-3,7.874656E-3,2.7539471E-2,-2.8722098E-2,-5.4672986E-2,-3.526653E-2,-1.1928332E-2,3.0328258E-4,1.5217239E-2,-1.3381863E-2,-4.0044006E-2,2.1220816E-2,5.1062605E-3,-2.3059068E-2,4.877936E-3],"categories":[],"categories_nodes":[],"categories_segments":[],"categories_sizes":[],"default_left":[0,0,0,0,0,0,0,0,0,0,0,0,0,0,0,0,0,0,0,0,0,0,0,0,0,0,0,0,0,0,0],"id":20,"left_children":[1,3,5,7,9,11,13,15,17,19,21,23,25,27,29,-1,-1,-1,-1,-1,-1,-1,-1,-1,-1,-1,-1,-1,-1,-1,-1],"loss_changes":[2.0963213E3,6.7799695E2,4.975664E2,5.378793E2,3.3403894E2,3.6836206E2,3.437578E2,3.7003613E2,1.17208435E2,1.173512E2,2.1114429E2,1.5110234E2,7.669345E1,2.924176E2,1.5434946E2,0E0,0E0,0E0,0E0,0E0,0E0,0E0,0E0,0E0,0E0,0E0,0E0,0E0,0E0,0E0,0E0],"parents":[2147483647,0,0,1,1,2,2,3,3,4,4,5,5,6,6,7,7,8,8,9,9,10,10,11,11,12,12,13,13,14,14],"right_children":[2,4,6,8,10,12,14,16,18,20,22,24,26,28,30,-1,-1,-1,-1,-1,-1,-1,-1,-1,-1,-1,-1,-1,-1,-1,-1],"split_conditions":[2.47343E2,2E0,1.4E1,6E1,9.23E-2,1.409E1,2E0,1E0,7.88E-2,3.0069E4,7.35E0,7E0,5.3E4,3E0,1.9755E2,-1.3382891E-2,2.2628438E-3,7.874656E-3,2.7539471E-2,-2.8722098E-2,-5.4672986E-2,-3.526653E-2,-1.1928332E-2,3.0328258E-4,1.5217239E-2,-1.3381863E-2,-4.0044006E-2,2.1220816E-2,5.1062605E-3,-2.3059068E-2,4.877936E-3],"split_indices":[32,21,6,2,30,3,10,13,31,25,3,22,9,21,4,0,0,0,0,0,0,0,0,0,0,0,0,0,0,0,0],"split_type":[0,0,0,0,0,0,0,0,0,0,0,0,0,0,0,0,0,0,0,0,0,0,0,0,0,0,0,0,0,0,0],"sum_hessian":[2.3968853E5,1.2263895E5,1.1704958E5,7.490818E4,4.7730773E4,4.0542848E4,7.6506734E4,6.227294E4,1.2635234E4,8.237635E3,3.949314E4,3.6222863E4,4.3199844E3,6.3364047E4,1.3142688E4,3.6443914E4,2.5829027E4,7.5874478E3,5.0477866E3,5.727198E3,2.5104365E3,4.356213E3,3.5136926E4,2.7166182E4,9.056682E3,2.1391504E3,2.180834E3,4.8716023E4,1.4648021E4,2.4229058E3,1.0719782E4],"tree_param":{"num_deleted":"0","num_feature":"37","num_nodes":"31","size_leaf_vector":"1"}},{"base_weights":[3.0807604E-3,-8.16898E-2,9.036155E-2,-2.3463881E-1,-4.60703E-2,3.5159927E-2,1.6280226E-1,-2.2966778E-2,-2.760932E-1,-1.7799685E-2,-2.1065609E-1,6.818574E-2,-5.918312E-2,2.626873E-1,1.0272569E-1,-1.04042515E-2,2.0753484E-2,1.5164671E-2,-3.0114193E-2,-4.5695263E-3,1.3342082E-2,-3.2936133E-2,-1.3860936E-2,1.49644455E-2,2.955891E-3,-1.4089485E-2,3.866354E-3,-5.3905626E-3,2.7960941E-2,1.700162E-2,1.8124431E-3],"categories":[],"categories_nodes":[],"categories_segments":[],"categories_sizes":[],"default_left":[0,0,0,0,0,0,0,0,0,0,0,0,0,0,0,0,0,0,0,0,0,0,0,0,0,0,0,0,0,0,0],"id":21,"left_children":[1,3,5,7,9,11,13,15,17,19,21,23,25,27,29,-1,-1,-1,-1,-1,-1,-1,-1,-1,-1,-1,-1,-1,-1,-1,-1],"loss_changes":[1.7678141E3,6.6031915E2,4.7074286E2,2.0088599E2,4.5744885E2,2.0818268E2,3.0545056E2,7.015537E1,2.0522156E2,3.539588E2,1.23162964E2,1.557116E2,1.3853069E2,1.0246045E2,1.8099118E2,0E0,0E0,0E0,0E0,0E0,0E0,0E0,0E0,0E0,0E0,0E0,0E0,0E0,0E0,0E0,0E0],"parents":[2147483647,0,0,1,1,2,2,3,3,4,4,5,5,6,6,7,7,8,8,9,9,10,10,11,11,12,12,13,13,14,14],"right_children":[2,4,6,8,10,12,14,16,18,20,22,24,26,28,30,-1,-1,-1,-1,-1,-1,-1,-1,-1,-1,-1,-1,-1,-1,-1,-1],"split_conditions":[2.45653E2,6E1,1.8E2,2.8E1,4E0,2E0,5.709E3,7E0,3.05E4,3.2E-1,1.39916E2,3.815E3,5E0,1.8069E2,1.8284E4,-1.04042515E-2,2.0753484E-2,1.5164671E-2,-3.0114193E-2,-4.5695263E-3,1.3342082E-2,-3.2936133E-2,-1.3860936E-2,1.49644455E-2,2.955891E-3,-1.4089485E-2,3.866354E-3,-5.3905626E-3,2.7960941E-2,1.700162E-2,1.8124431E-3],"split_indices":[32,33,33,14,21,10,25,22,9,30,32,25,22,4,18,0,0,0,0,0,0,0,0,0,0,0,0,0,0,0,0],"split_type":[0,0,0,0,0,0,0,0,0,0,0,0,0,0,0,0,0,0,0,0,0,0,0,0,0,0,0,0,0,0,0],"sum_hessian":[2.3892722E5,1.2120665E5,1.1772057E5,2.2893121E4,9.831353E4,6.6811516E4,5.090906E4,3.7497048E3,1.9143416E4,8.390375E4,1.4409784E4,4.9488188E4,1.7323328E4,1.9117318E4,3.179174E4,2.7748035E3,9.7490125E2,1.0584725E3,1.8084943E4,7.0837734E4,1.3066011E4,5.439855E3,8.969929E3,1.591657E4,3.3571617E4,9.439513E3,7.883815E3,9.6976624E2,1.8147553E4,1.7706363E4,1.4085377E4],"tree_param":{"num_deleted":"0","num_feature":"37","num_nodes":"31","size_leaf_vector":"1"}},{"base_weights":[2.0701867E-3,-1.0424245E-1,6.3376784E-2,-6.274736E-2,-2.248016E-1,1.976834E-2,1.4376968E-1,-1.2724428E-1,3.129906E-2,-6.62802E-2,-2.710942E-1,-1.33859245E-2,1.1464221E-1,2.8542262E-1,9.115753E-2,-1.612071E-2,4.6163416E-3,-3.1063803E-3,1.52270915E-2,7.546928E-3,-1.712687E-2,-4.104141E-2,-2.0829787E-2,4.799557E-3,-7.933486E-3,-1.2285689E-2,1.3465113E-2,2.1830695E-2,3.5143342E-2,6.616874E-3,2.6548525E-2],"categories":[],"categories_nodes":[],"categories_segments":[],"categories_sizes":[],"default_left":[0,0,0,0,0,0,0,0,0,0,0,0,0,0,0,0,0,0,0,0,0,0,0,0,0,0,0,0,0,0,0],"id":22,"left_children":[1,3,5,7,9,11,13,15,17,19,21,23,25,27,29,-1,-1,-1,-1,-1,-1,-1,-1,-1,-1,-1,-1,-1,-1,-1,-1],"loss_changes":[1.5519865E3,4.3566034E2,5.294688E2,3.930318E2,1.6360803E2,3.0799857E2,3.9577917E2,2.263794E2,1.988777E2,7.507463E1,1.50823E2,2.9374252E2,1.20531525E2,6.3569946E1,1.6868774E2,0E0,0E0,0E0,0E0,0E0,0E0,0E0,0E0,0E0,0E0,0E0,0E0,0E0,0E0,0E0,0E0],"parents":[2147483647,0,0,1,1,2,2,3,3,4,4,5,5,6,6,7,7,8,8,9,9,10,10,11,11,12,12,13,13,14,14],"right_children":[2,4,6,8,10,12,14,16,18,20,22,24,26,28,30,-1,-1,-1,-1,-1,-1,-1,-1,-1,-1,-1,-1,-1,-1,-1,-1],"split_conditions":[1.91355E2,3E0,6E1,1E0,2.1E1,2E0,4.665E3,6E1,1.4975E4,7E0,1.25E-1,6.074E3,3.6E3,2.119E1,6E0,-1.612071E-2,4.6163416E-3,-3.1063803E-3,1.52270915E-2,7.546928E-3,-1.712687E-2,-4.104141E-2,-2.0829787E-2,4.799557E-3,-7.933486E-3,-1.2285689E-2,1.3465113E-2,2.1830695E-2,3.5143342E-2,6.616874E-3,2.6548525E-2],"split_indices":[32,21,2,13,14,36,25,2,0,7,30,25,0,11,5,0,0,0,0,0,0,0,0,0,0,0,0,0,0,0,0],"split_type":[0,0,0,0,0,0,0,0,0,0,0,0,0,0,0,0,0,0,0,0,0,0,0,0,0,0,0,0,0,0,0],"sum_hessian":[2.3811595E5,8.7090195E4,1.5102575E5,6.479242E4,2.2297775E4,9.791506E4,5.311069E4,3.8433836E4,2.6358584E4,5.040902E3,1.7256875E4,7.256017E4,2.5354887E4,1.438139E4,3.87293E4,3.2139322E4,6.294514E3,1.7393469E4,8.965115E3,2.1451733E3,2.8957285E3,5.35817E3,1.1898704E4,3.7581766E4,3.4978406E4,1.9693296E3,2.3385557E4,7.135285E3,7.246105E3,3.387613E4,4.8531733E3],"tree_param":{"num_deleted":"0","num_feature":"37","num_nodes":"31","size_leaf_vector":"1"}},{"base_weights":[5.9094856E-4,-6.2295746E-2,8.233343E-2,-1.3279423E-1,1.6960385E-3,6.399632E-2,2.52865E-1,-2.7006605E-1,-9.2425436E-2,-3.1853158E-2,1.3761307E-1,7.712715E-3,1.10725306E-1,-5.126724E-1,2.6096538E-1,-3.4377858E-2,-9.307992E-3,-2.820865E-3,-1.4851371E-2,1.0587896E-3,-1.1746126E-2,1.5724188E-2,-2.1187942E-2,-1.6731149E-2,2.5499964E-3,6.424041E-3,1.9442404E-2,6.6517435E-2,-6.67487E-2,3.357729E-2,1.9446423E-2],"categories":[],"categories_nodes":[],"categories_segments":[],"categories_sizes":[],"default_left":[0,0,0,0,0,0,0,0,0,0,0,0,0,0,0,0,0,0,0,0,0,0,0,0,0,0,0,0,0,0,0],"id":23,"left_children":[1,3,5,7,9,11,13,15,17,19,21,23,25,27,29,-1,-1,-1,-1,-1,-1,-1,-1,-1,-1,-1,-1,-1,-1,-1,-1],"loss_changes":[1.220402E3,6.053305E2,3.2276862E2,3.5374292E2,3.2074307E2,2.451442E2,6.2413574E1,1.8920288E2,1.777002E2,2.0497406E2,9.559485E1,1.3164658E2,1.981175E2,2.0145184E1,4.9209778E1,0E0,0E0,0E0,0E0,0E0,0E0,0E0,0E0,0E0,0E0,0E0,0E0,0E0,0E0,0E0,0E0],"parents":[2147483647,0,0,1,1,2,2,3,3,4,4,5,5,6,6,7,7,8,8,9,9,10,10,11,11,12,12,13,13,14,14],"right_children":[2,4,6,8,10,12,14,16,18,20,22,24,26,28,30,-1,-1,-1,-1,-1,-1,-1,-1,-1,-1,-1,-1,-1,-1,-1,-1],"split_conditions":[1.4E1,1E0,2.399E1,1.1272E2,7E0,1E0,1.84E-2,7.4E-2,7E0,2E0,1.409E1,8.79E-2,6E1,2.82E2,1.01E4,-3.4377858E-2,-9.307992E-3,-2.820865E-3,-1.4851371E-2,1.0587896E-3,-1.1746126E-2,1.5724188E-2,-2.1187942E-2,-1.6731149E-2,2.5499964E-3,6.424041E-3,1.9442404E-2,6.6517435E-2,-6.67487E-2,3.357729E-2,1.9446423E-2],"split_indices":[6,8,3,32,22,8,31,31,7,10,3,30,2,18,18,0,0,0,0,0,0,0,0,0,0,0,0,0,0,0,0],"split_type":[0,0,0,0,0,0,0,0,0,0,0,0,0,0,0,0,0,0,0,0,0,0,0,0,0,0,0,0,0,0,0],"sum_hessian":[2.3740453E5,1.3417816E5,1.0322638E5,6.384225E4,7.03359E4,9.32067E4,1.0019685E4,1.4505552E4,4.9336695E4,5.6412742E4,1.3923157E4,4.2281848E4,5.092485E4,1.03606964E2,9.916078E3,1.0239178E4,4.2663745E3,2.300301E4,2.6333686E4,3.771628E4,1.8696463E4,1.3183806E4,7.393513E2,3.8990356E3,3.8382812E4,3.2743297E4,1.8181553E4,1.1270035E1,9.233693E1,4.6627847E3,5.253293E3],"tree_param":{"num_deleted":"0","num_feature":"37","num_nodes":"31","size_leaf_vector":"1"}},{"base_weights":[2.0448258E-3,-9.503687E-2,4.988462E-2,-1.8541518E-1,-5.0330717E-2,8.127758E-2,-5.0435863E-2,-2.5328577E-1,-2.8325235E-2,-1.7248685E-2,-1.9231182E-1,-2.1299416E-2,1.1094351E-1,3.5951596E-2,-1.1420164E-1,-2.9942836E-3,-2.885857E-2,1.4501479E-2,-1.946665E-2,-5.2105663E-3,1.3896048E-2,-2.409278E-2,2.6407016E-3,-2.5613202E-2,3.9602045E-4,8.484396E-3,2.228477E-2,1.0011571E-2,-3.4024955E-3,-3.648821E-2,-8.585128E-3],"categories":[],"categories_nodes":[],"categories_segments":[],"categories_sizes":[],"default_left":[0,0,0,0,0,0,0,0,0,0,0,0,0,0,0,0,0,0,0,0,0,0,0,0,0,0,0,0,0,0,0],"id":24,"left_children":[1,3,5,7,9,11,13,15,17,19,21,23,25,27,29,-1,-1,-1,-1,-1,-1,-1,-1,-1,-1,-1,-1,-1,-1,-1,-1],"loss_changes":[1.1004866E3,3.160243E2,4.9990952E2,2.7597595E2,2.4581435E2,3.6790717E2,2.0841748E2,1.4249304E2,2.2530571E2,2.3114153E2,1.0517267E2,1.6088951E2,2.7385645E2,7.2153694E1,1.5463492E2,0E0,0E0,0E0,0E0,0E0,0E0,0E0,0E0,0E0,0E0,0E0,0E0,0E0,0E0,0E0,0E0],"parents":[2147483647,0,0,1,1,2,2,3,3,4,4,5,5,6,6,7,7,8,8,9,9,10,10,11,11,12,12,13,13,14,14],"right_children":[2,4,6,8,10,12,14,16,18,20,22,24,26,28,30,-1,-1,-1,-1,-1,-1,-1,-1,-1,-1,-1,-1,-1,-1,-1,-1],"split_conditions":[1.08E2,1.20551E2,3E0,7.61E-2,1.155E1,7.5E3,7E0,1.8E1,9.68E3,1.139E1,1.279E-1,4.19E-2,1.999E1,7.8E4,8.79E-2,-2.9942836E-3,-2.885857E-2,1.4501479E-2,-1.946665E-2,-5.2105663E-3,1.3896048E-2,-2.409278E-2,2.6407016E-3,-2.5613202E-2,3.9602045E-4,8.484396E-3,2.228477E-2,1.0011571E-2,-3.4024955E-3,-3.648821E-2,-8.585128E-3],"split_indices":[33,32,21,31,3,0,7,14,18,3,31,30,3,9,30,0,0,0,0,0,0,0,0,0,0,0,0,0,0,0,0],"split_type":[0,0,0,0,0,0,0,0,0,0,0,0,0,0,0,0,0,0,0,0,0,0,0,0,0,0,0,0,0,0,0],"sum_hessian":[2.3694667E5,7.821742E4,1.5872925E5,2.5883947E4,5.2333477E4,1.20897555E5,3.783169E4,1.8073906E4,7.8100415E3,4.2445734E4,9.887743E3,2.7120959E4,9.377659E4,1.6066406E4,2.1765285E4,2.4672554E3,1.560665E4,3.8246875E3,3.9853538E3,3.4703273E4,7.7424595E3,8.0894487E3,1.7982946E3,2.6321565E3,2.4488803E4,7.604423E4,1.7732367E4,8.38084E3,7.685567E3,2.2090063E3,1.955628E4],"tree_param":{"num_deleted":"0","num_feature":"37","num_nodes":"31","size_leaf_vector":"1"}},{"base_weights":[-1.8995913E-3,-9.16253E-2,4.2268682E-2,-2.32706E-1,-5.97815E-2,6.0788848E-2,-1.1223898E-1,1.5804291E-1,-2.5740322E-1,-2.7115019E-2,-1.7255254E-1,8.672402E-2,-3.2093428E-2,-3.8040876E-1,-8.6600415E-2,7.737137E-3,9.1353394E-2,-1.7570112E-3,-3.0713279E-2,-6.031275E-3,1.692883E-2,-5.369578E-3,-2.5465785E-2,4.796494E-3,1.3924131E-2,-8.944741E-3,7.7311597E-3,-2.5835818E-2,-5.494054E-2,-1.0266679E-2,2.4880849E-2],"categories":[],"categories_nodes":[],"categories_segments":[],"categories_sizes":[],"default_left":[0,0,0,0,0,0,0,0,0,0,0,0,0,0,0,0,0,0,0,0,0,0,0,0,0,0,0,0,0,0,0],"id":25,"left_children":[1,3,5,7,9,11,13,15,17,19,21,23,25,27,29,-1,-1,-1,-1,-1,-1,-1,-1,-1,-1,-1,-1,-1,-1,-1,-1],"loss_changes":[9.3531177E2,3.497326E2,4.525775E2,1.3842908E2,2.3398625E2,3.4021405E2,1.1632941E2,5.1875008E1,1.6081549E2,3.2116974E2,1.391977E2,2.247127E2,1.9345703E2,3.0174454E1,8.3331535E1,0E0,0E0,0E0,0E0,0E0,0E0,0E0,0E0,0E0,0E0,0E0,0E0,0E0,0E0,0E0,0E0],"parents":[2147483647,0,0,1,1,2,2,3,3,4,4,5,5,6,6,7,7,8,8,9,9,10,10,11,11,12,12,13,13,14,14],"right_children":[2,4,6,8,10,12,14,16,18,20,22,24,26,28,30,-1,-1,-1,-1,-1,-1,-1,-1,-1,-1,-1,-1,-1,-1,-1,-1],"split_conditions":[1.08E2,7.89E0,2.7617E4,3.3E4,1.153E1,2E0,6.025E3,1.4316E4,3.1E1,1.139E1,2.82486E3,2.171E1,6E1,5.19751E3,3E0,7.737137E-3,9.1353394E-2,-1.7570112E-3,-3.0713279E-2,-6.031275E-3,1.692883E-2,-5.369578E-3,-2.5465785E-2,4.796494E-3,1.3924131E-2,-8.944741E-3,7.7311597E-3,-2.5835818E-2,-5.494054E-2,-1.0266679E-2,2.4880849E-2],"split_indices":[33,3,25,9,3,10,0,18,14,3,35,11,2,35,12,0,0,0,0,0,0,0,0,0,0,0,0,0,0,0,0],"split_type":[0,0,0,0,0,0,0,0,0,0,0,0,0,0,0,0,0,0,0,0,0,0,0,0,0,0,0,0,0,0,0],"sum_hessian":[2.360053E5,7.785153E4,1.5815377E5,1.4333926E4,6.351761E4,1.4122675E5,1.6927025E4,8.514741E2,1.3482452E4,4.925295E4,1.4264661E4,1.1040023E5,3.0826514E4,1.4746859E3,1.5452339E4,7.7131744E2,8.015668E1,2.3159438E3,1.1166508E4,4.213271E4,7.120237E3,5.829338E3,8.435323E3,6.3522703E4,4.6877527E4,2.0224486E4,1.0602027E4,8.592133E2,6.154726E2,1.4747317E4,7.050216E2],"tree_param":{"num_deleted":"0","num_feature":"37","num_nodes":"31","size_leaf_vector":"1"}},{"base_weights":[-1.9576485E-4,-5.499615E-2,7.015659E-2,-1.3445845E-2,-1.4560169E-1,4.4964783E-2,1.8578859E-1,-3.2636154E-2,1.5733841E-1,-2.4706502E-1,-9.8182745E-2,-2.9322448E-1,5.2383583E-2,4.813078E-2,2.2793713E-1,3.9832373E-3,-8.362567E-3,1.9682588E-2,-1.2260503E-2,-3.6515113E-2,-1.5719425E-2,-1.2886554E-2,5.240964E-3,-4.0747244E-2,-1.1835574E-2,3.836285E-3,2.1319717E-2,-2.9819084E-3,2.2706782E-2,1.4293839E-2,3.0482342E-2],"categories":[],"categories_nodes":[],"categories_segments":[],"categories_sizes":[],"default_left":[0,0,0,0,0,0,0,0,0,0,0,0,0,0,0,0,0,0,0,0,0,0,0,0,0,0,0,0,0,0,0],"id":26,"left_children":[1,3,5,7,9,11,13,15,17,19,21,23,25,27,29,-1,-1,-1,-1,-1,-1,-1,-1,-1,-1,-1,-1,-1,-1,-1,-1],"loss_changes":[9.086682E2,4.9877747E2,3.0060733E2,2.9771796E2,2.0036554E2,2.1264645E2,1.0709009E2,3.017597E2,1.0148439E2,1.4066815E2,1.3119778E2,3.6251877E1,1.869572E2,6.0408707E1,9.227527E1,0E0,0E0,0E0,0E0,0E0,0E0,0E0,0E0,0E0,0E0,0E0,0E0,0E0,0E0,0E0,0E0],"parents":[2147483647,0,0,1,1,2,2,3,3,4,4,5,5,6,6,7,7,8,8,9,9,10,10,11,11,12,12,13,13,14,14],"right_children":[2,4,6,8,10,12,14,16,18,20,22,24,26,28,30,-1,-1,-1,-1,-1,-1,-1,-1,-1,-1,-1,-1,-1,-1,-1,-1],"split_conditions":[2.68459E2,2E0,1E0,3E0,1.25E-1,4.44E-2,3.12537E2,1E0,5E0,3.54977E2,2E0,5E0,2.399E1,1.525E4,1E0,3.9832373E-3,-8.362567E-3,1.9682588E-2,-1.2260503E-2,-3.6515113E-2,-1.5719425E-2,-1.2886554E-2,5.240964E-3,-4.0747244E-2,-1.1835574E-2,3.836285E-3,2.1319717E-2,-2.9819084E-3,2.2706782E-2,1.4293839E-2,3.0482342E-2],"split_indices":[32,10,17,36,30,30,34,21,21,34,36,22,3,0,8,0,0,0,0,0,0,0,0,0,0,0,0,0,0,0,0],"split_type":[0,0,0,0,0,0,0,0,0,0,0,0,0,0,0,0,0,0,0,0,0,0,0,0,0,0,0,0,0,0,0],"sum_hessian":[2.3568703E5,1.3248745E5,1.0319957E5,9.083447E4,4.1652992E4,8.47406E4,1.8458973E4,8.1660266E4,9.174203E3,1.326378E4,2.8389213E4,1.8173828E3,8.292322E4,4.3279863E3,1.4130986E4,3.3726758E4,4.7933508E4,8.0406255E3,1.133578E3,5.7294355E3,7.5343447E3,2.358427E4,4.8049434E3,1.097613E3,7.1976984E2,7.6275516E4,6.6477E3,3.0158613E3,1.312125E3,6.7141406E3,7.416846E3],"tree_param":{"num_deleted":"0","num_feature":"37","num_nodes":"31","size_leaf_vector":"1"}},{"base_weights":[1.5425781E-4,-9.751338E-2,3.161722E-2,6.256544E-2,-1.256478E-1,5.6536604E-2,-5.1271535E-2,8.896264E-3,1.8719101E-1,-1.5249944E-1,4.0311053E-2,2.2296015E-2,1.2998958E-1,1.1052685E-1,-7.614809E-2,-7.507078E-3,1.3666945E-2,-4.6118563E-3,2.7597357E-2,-3.460219E-2,-1.3027832E-2,2.296901E-3,4.8448186E-2,1.4277073E-4,1.7373743E-2,2.6816508E-2,9.541301E-3,-1.1414613E-2,1.3539398E-2,3.453958E-3,-1.0287776E-2],"categories":[],"categories_nodes":[],"categories_segments":[],"categories_sizes":[],"default_left":[0,0,0,0,0,0,0,0,0,0,0,0,0,0,0,0,0,0,0,0,0,0,0,0,0,0,0,0,0,0,0],"id":27,"left_children":[1,3,5,7,9,11,13,15,17,19,21,23,25,27,29,-1,-1,-1,-1,-1,-1,-1,-1,-1,-1,-1,-1,-1,-1,-1,-1],"loss_changes":[7.23269E2,2.5829633E2,3.6771454E2,5.7343254E1,2.1737305E2,3.4424005E2,1.6564435E2,6.4340324E1,5.3482536E1,1.8045294E2,5.2313835E1,2.9503955E2,2.0786029E2,3.0672638E1,1.05533936E2,0E0,0E0,0E0,0E0,0E0,0E0,0E0,0E0,0E0,0E0,0E0,0E0,0E0,0E0,0E0,0E0],"parents":[2147483647,0,0,1,1,2,2,3,3,4,4,5,5,6,6,7,7,8,8,9,9,10,10,11,11,12,12,13,13,14,14],"right_children":[2,4,6,8,10,12,14,16,18,20,22,24,26,28,30,-1,-1,-1,-1,-1,-1,-1,-1,-1,-1,-1,-1,-1,-1,-1,-1],"split_conditions":[9E0,2.201E3,3E0,1.734E1,2E0,6E1,1.9774E3,2.019E-1,2.33E1,1.65E1,9.49E1,3E0,2.916E3,3.1E1,1.6E1,-7.507078E-3,1.3666945E-2,-4.6118563E-3,2.7597357E-2,-3.460219E-2,-1.3027832E-2,2.296901E-3,4.8448186E-2,1.4277073E-4,1.7373743E-2,2.6816508E-2,9.541301E-3,-1.1414613E-2,1.3539398E-2,3.453958E-3,-1.0287776E-2],"split_indices":[6,25,21,11,36,2,35,30,19,19,26,36,25,26,14,0,0,0,0,0,0,0,0,0,0,0,0,0,0,0,0],"split_type":[0,0,0,0,0,0,0,0,0,0,0,0,0,0,0,0,0,0,0,0,0,0,0,0,0,0,0,0,0,0,0],"sum_hessian":[2.3536517E5,5.734623E4,1.7801894E5,8.571841E3,4.877439E4,1.3687112E5,4.1147816E4,5.9930967E3,2.5787444E3,4.1981992E4,6.7923994E3,9.335547E4,4.3515656E4,5.482497E3,3.5665316E4,3.616991E3,2.376106E3,7.110787E2,1.8676658E3,4.3210513E3,3.766094E4,6.539189E3,2.532103E2,8.205102E4,1.1304439E4,8.707017E3,3.480864E4,5.4562537E2,4.9368716E3,6.937305E3,2.8728014E4],"tree_param":{"num_deleted":"0","num_feature":"37","num_nodes":"31","size_leaf_vector":"1"}},{"base_weights":[-3.139113E-3,2.956014E-2,-9.2213474E-2,5.149067E-2,-8.212258E-2,-1.2488501E-1,3.3642154E-2,3.7451662E-2,2.0879428E-1,-1.2357044E-1,4.435864E-2,-1.9053942E-1,-4.9864225E-2,1.983332E-2,5.1597685E-1,2.4274604E-3,1.6790457E-2,1.7997203E-2,3.6558826E-2,4.7085485E-3,-1.50302965E-2,-2.6214182E-2,7.104764E-3,-3.8470548E-2,-1.5192042E-2,-1.0069999E-2,2.753995E-3,-8.17285E-3,7.6782787E-3,6.442738E-2,1.0959766E-2],"categories":[],"categories_nodes":[],"categories_segments":[],"categories_sizes":[],"default_left":[0,0,0,0,0,0,0,0,0,0,0,0,0,0,0,0,0,0,0,0,0,0,0,0,0,0,0,0,0,0,0],"id":28,"left_children":[1,3,5,7,9,11,13,15,17,19,21,23,25,27,29,-1,-1,-1,-1,-1,-1,-1,-1,-1,-1,-1,-1,-1,-1,-1,-1],"loss_changes":[6.8337946E2,4.203539E2,2.5906708E2,3.167853E2,1.4768726E2,2.4634326E2,8.647232E1,2.2638591E2,5.298419E1,9.68096E1,5.6924416E1,1.9989478E2,9.187244E1,7.304355E1,1.8698563E1,0E0,0E0,0E0,0E0,0E0,0E0,0E0,0E0,0E0,0E0,0E0,0E0,0E0,0E0,0E0,0E0],"parents":[2147483647,0,0,1,1,2,2,3,3,4,4,5,5,6,6,7,7,8,8,9,9,10,10,11,11,12,12,13,13,14,14],"right_children":[2,4,6,8,10,12,14,16,18,20,22,24,26,28,30,-1,-1,-1,-1,-1,-1,-1,-1,-1,-1,-1,-1,-1,-1,-1,-1],"split_conditions":[2E0,2.2458E4,2E0,5.64382E2,2E0,1.996E-1,5E0,7.4E1,8.13193E2,1.6E1,5.88E-2,2.37E1,1.5E1,1.316E-1,3.0659E2,2.4274604E-3,1.6790457E-2,1.7997203E-2,3.6558826E-2,4.7085485E-3,-1.50302965E-2,-2.6214182E-2,7.104764E-3,-3.8470548E-2,-1.5192042E-2,-1.0069999E-2,2.753995E-3,-8.17285E-3,7.6782787E-3,6.442738E-2,1.0959766E-2],"split_indices":[10,25,36,32,36,30,13,15,32,14,30,19,27,30,32,0,0,0,0,0,0,0,0,0,0,0,0,0,0,0,0],"split_type":[0,0,0,0,0,0,0,0,0,0,0,0,0,0,0,0,0,0,0,0,0,0,0,0,0,0,0,0,0,0,0],"sum_hessian":[2.3461956E5,1.7161934E5,6.300023E4,1.4345161E5,2.8167732E4,5.0016258E4,1.2983972E4,1.3170012E5,1.1751476E4,2.1215475E4,6.952258E3,2.6671564E4,2.3344693E4,1.2624621E4,3.5934998E2,1.196197E5,1.2080425E4,9.930351E3,1.8211251E3,2.8730269E3,1.8342447E4,5.5547345E2,6.3967847E3,4.4218354E3,2.224973E4,1.40902295E4,9.254464E3,4.535424E3,8.0891978E3,2.7223312E2,8.711685E1],"tree_param":{"num_deleted":"0","num_feature":"37","num_nodes":"31","size_leaf_vector":"1"}},{"base_weights":[7.0654193E-4,-8.033329E-2,3.475471E-2,-1.0171048E-1,1.0035988E-1,8.334562E-3,1.143185E-1,1.0188831E-2,-1.3918811E-1,3.2698783E-1,4.7163438E-2,3.3111613E-2,-6.7484654E-2,7.089356E-2,1.7013112E-1,6.5982277E-3,-1.0251763E-2,-1.9537114E-2,-5.825061E-3,4.0080816E-2,3.5880596E-4,-2.0307973E-2,8.757716E-3,8.32138E-3,-1.2244275E-4,-2.2020627E-2,-4.713786E-3,1.0021506E-2,-6.5457397E-3,1.1739206E-2,2.3871511E-2],"categories":[],"categories_nodes":[],"categories_segments":[],"categories_sizes":[],"default_left":[0,0,0,0,0,0,0,0,0,0,0,0,0,0,0,0,0,0,0,0,0,0,0,0,0,0,0,0,0,0,0],"id":29,"left_children":[1,3,5,7,9,11,13,15,17,19,21,23,25,27,29,-1,-1,-1,-1,-1,-1,-1,-1,-1,-1,-1,-1,-1,-1,-1,-1],"loss_changes":[6.469501E2,2.6795853E2,3.4705252E2,2.6013123E2,8.844932E1,2.3284514E2,9.972571E1,9.788605E1,2.1127191E2,3.3298126E1,6.017226E1,1.6070929E2,9.4843735E1,9.25693E1,6.508038E1,0E0,0E0,0E0,0E0,0E0,0E0,0E0,0E0,0E0,0E0,0E0,0E0,0E0,0E0,0E0,0E0],"parents":[2147483647,0,0,1,1,2,2,3,3,4,4,5,5,6,6,7,7,8,8,9,9,10,10,11,11,12,12,13,13,14,14],"right_children":[2,4,6,8,10,12,14,16,18,20,22,24,26,28,30,-1,-1,-1,-1,-1,-1,-1,-1,-1,-1,-1,-1,-1,-1,-1,-1],"split_conditions":[1.67048E2,3.305E-1,2E0,3E1,1.87E1,2E0,2.286E-1,3E0,1E0,1.199E1,7.9E0,2.31481E3,4.55E3,4E0,3E0,6.5982277E-3,-1.0251763E-2,-1.9537114E-2,-5.825061E-3,4.0080816E-2,3.5880596E-4,-2.0307973E-2,8.757716E-3,8.32138E-3,-1.2244275E-4,-2.2020627E-2,-4.713786E-3,1.0021506E-2,-6.5457397E-3,1.1739206E-2,2.3871511E-2],"split_indices":[32,30,36,14,26,10,30,21,13,11,3,35,0,21,36,0,0,0,0,0,0,0,0,0,0,0,0,0,0,0,0],"split_type":[0,0,0,0,0,0,0,0,0,0,0,0,0,0,0,0,0,0,0,0,0,0,0,0,0,0,0,0,0,0,0],"sum_hessian":[2.3446123E5,6.936329E4,1.6509795E5,6.2026074E4,7.337219E3,1.2394326E5,4.1154688E4,1.55622705E4,4.6463805E4,1.3928962E3,5.9443228E3,9.341665E4,3.052661E4,2.3148537E4,1.800615E4,1.0409869E4,5.152402E3,2.7424303E4,1.90395E4,1.1336473E3,2.592489E2,8.253954E2,5.1189272E3,3.798588E4,5.543077E4,3.586554E3,2.6940055E4,1.9052035E4,4.096501E3,1.0181954E4,7.824197E3],"tree_param":{"num_deleted":"0","num_feature":"37","num_nodes":"31","size_leaf_vector":"1"}},{"base_weights":[3.049103E-3,-2.738306E-2,7.757737E-2,-7.354186E-2,2.7173044E-2,1.9595314E-2,1.5375677E-1,-2.8525032E-2,-1.4172702E-1,9.1550775E-2,-6.9824466E-3,8.597996E-2,-3.584424E-2,2.8083152E-1,1.2121795E-1,8.6927426E-4,-1.1114876E-2,-4.310272E-2,-1.2852042E-2,6.213058E-3,1.633117E-2,-3.948502E-3,8.800386E-3,1.5534582E-2,3.2496806E-3,2.03888E-3,-1.3325985E-2,-4.567965E-2,2.8900284E-2,9.420497E-3,2.6709763E-2],"categories":[],"categories_nodes":[],"categories_segments":[],"categories_sizes":[],"default_left":[0,0,0,0,0,0,0,0,0,0,0,0,0,0,0,0,0,0,0,0,0,0,0,0,0,0,0,0,0,0,0],"id":30,"left_children":[1,3,5,7,9,11,13,15,17,19,21,23,25,27,29,-1,-1,-1,-1,-1,-1,-1,-1,-1,-1,-1,-1,-1,-1,-1,-1],"loss_changes":[5.313549E2,4.1891766E2,3.00027E2,2.7658652E2,1.676468E2,1.4196452E2,1.21315674E2,1.6691484E2,1.3679852E2,5.577652E1,1.5380246E2,6.51133E1,1.1515357E2,3.632605E1,9.2062805E1,0E0,0E0,0E0,0E0,0E0,0E0,0E0,0E0,0E0,0E0,0E0,0E0,0E0,0E0,0E0,0E0],"parents":[2147483647,0,0,1,1,2,2,3,3,4,4,5,5,6,6,7,7,8,8,9,9,10,10,11,11,12,12,13,13,14,14],"right_children":[2,4,6,8,10,12,14,16,18,20,22,24,26,28,30,-1,-1,-1,-1,-1,-1,-1,-1,-1,-1,-1,-1,-1,-1,-1,-1],"split_conditions":[6E1,1E0,1E0,4.06174E3,2.54065E3,9.71E1,2.434E3,2E0,2E0,6E0,3E0,7E0,5.01329E3,9.7E3,1E0,8.6927426E-4,-1.1114876E-2,-4.310272E-2,-1.2852042E-2,6.213058E-3,1.633117E-2,-3.948502E-3,8.800386E-3,1.5534582E-2,3.2496806E-3,2.03888E-3,-1.3325985E-2,-4.567965E-2,2.8900284E-2,9.420497E-3,2.6709763E-2],"split_indices":[2,13,8,35,35,23,25,10,6,22,36,7,35,0,17,0,0,0,0,0,0,0,0,0,0,0,0,0,0,0,0],"split_type":[0,0,0,0,0,0,0,0,0,0,0,0,0,0,0,0,0,0,0,0,0,0,0,0,0,0,0,0,0,0,0],"sum_hessian":[2.342738E5,1.6634948E5,6.7924305E4,9.010923E4,7.6240266E4,3.8570125E4,2.9354178E4,5.4277363E4,3.5831863E4,2.642671E4,4.9813555E4,1.7551928E4,2.10182E4,5.98103E3,2.3373146E4,3.742231E4,1.6855053E4,1.5615563E3,3.427031E4,1.8745324E4,7.681386E3,3.7114742E4,1.2698814E4,7.639693E3,9.912234E3,1.3326865E4,7.6913345E3,6.43278E1,5.916702E3,1.9724072E4,3.6490747E3],"tree_param":{"num_deleted":"0","num_feature":"37","num_nodes":"31","size_leaf_vector":"1"}},{"base_weights":[-1.1172403E-3,3.4821555E-2,-5.9896637E-2,1.3028205E-2,1.3767281E-1,1.4485279E-2,-1.2041666E-1,-1.4904589E-2,9.7730875E-2,8.159849E-2,2.5217792E-1,-6.654922E-3,2.2161014E-1,-3.053476E-1,-9.160537E-2,-5.9879906E-3,4.2749397E-3,8.463125E-3,3.7579693E-2,3.367612E-3,2.262249E-2,1.2664656E-2,2.8278744E-2,-4.345949E-3,1.0379949E-2,1.7226906E-2,4.0201064E-2,-3.423683E-2,3.4353125E-3,-1.3471006E-2,-2.8165458E-3],"categories":[],"categories_nodes":[],"categories_segments":[],"categories_sizes":[],"default_left":[0,0,0,0,0,0,0,0,0,0,0,0,0,0,0,0,0,0,0,0,0,0,0,0,0,0,0,0,0,0,0],"id":31,"left_children":[1,3,5,7,9,11,13,15,17,19,21,23,25,27,29,-1,-1,-1,-1,-1,-1,-1,-1,-1,-1,-1,-1,-1,-1,-1,-1],"loss_changes":[4.933847E2,3.24876E2,3.9893063E2,2.8297562E2,1.6267276E2,1.7409096E2,2.6028973E2,2.3322574E2,1.0797595E2,1.1790689E2,3.1934448E1,1.4667467E2,3.263707E1,8.2843506E1,1.1560736E2,0E0,0E0,0E0,0E0,0E0,0E0,0E0,0E0,0E0,0E0,0E0,0E0,0E0,0E0,0E0,0E0],"parents":[2147483647,0,0,1,1,2,2,3,3,4,4,5,5,6,6,7,7,8,8,9,9,10,10,11,11,12,12,13,13,14,14],"right_children":[2,4,6,8,10,12,14,16,18,20,22,24,26,28,30,-1,-1,-1,-1,-1,-1,-1,-1,-1,-1,-1,-1,-1,-1,-1,-1],"split_conditions":[2E0,1E0,7E0,6E1,1.3E1,2E0,1.07337E2,1E0,1E0,4.7047E2,3.04E1,6E0,6E0,2E0,6E1,-5.9879906E-3,4.2749397E-3,8.463125E-3,3.7579693E-2,3.367612E-3,2.262249E-2,1.2664656E-2,2.8278744E-2,-4.345949E-3,1.0379949E-2,1.7226906E-2,4.0201064E-2,-3.423683E-2,3.4353125E-3,-1.3471006E-2,-2.8165458E-3],"split_indices":[21,17,7,2,16,12,32,13,24,4,26,7,7,12,2,0,0,0,0,0,0,0,0,0,0,0,0,0,0,0,0],"split_type":[0,0,0,0,0,0,0,0,0,0,0,0,0,0,0,0,0,0,0,0,0,0,0,0,0,0,0,0,0,0,0],"sum_hessian":[2.3355525E5,1.449382E5,8.861705E4,1.1959851E5,2.5339703E4,3.975627E4,4.8860777E4,8.9940164E4,2.965834E4,1.701212E4,8.327584E3,3.6076098E4,3.6801714E3,6.58358E3,4.22772E4,5.0525574E4,3.941459E4,2.8326494E4,1.3318456E3,1.2779921E4,4.2321978E3,1.6345366E3,6.693047E3,2.7060479E4,9.015621E3,2.8928594E3,7.8731213E2,5.9365923E3,6.4698773E2,2.5171799E4,1.7105398E4],"tree_param":{"num_deleted":"0","num_feature":"37","num_nodes":"31","size_leaf_vector":"1"}},{"base_weights":[5.4443016E-4,-4.7990825E-2,4.290943E-2,6.9252606E-3,-9.6683644E-2,1.569131E-2,1.324099E-1,-2.4493065E-2,1.14435814E-1,-1.8283682E-1,-5.736755E-2,-1.5841508E-2,9.998713E-2,2.4121651E-1,1.04904704E-1,-3.9162535E-2,-1.3551313E-3,2.6253074E-2,4.938761E-3,-3.131185E-2,-1.3005845E-2,-1.9906806E-2,-3.523996E-3,-3.8638224E-3,7.5854026E-3,8.31073E-3,2.9002288E-2,-4.4750225E-2,2.4864528E-2,1.9896394E-2,6.830933E-3],"categories":[],"categories_nodes":[],"categories_segments":[],"categories_sizes":[],"default_left":[0,0,0,0,0,0,0,0,0,0,0,0,0,0,0,0,0,0,0,0,0,0,0,0,0,0,0,0,0,0,0],"id":32,"left_children":[1,3,5,7,9,11,13,15,17,19,21,23,25,27,29,-1,-1,-1,-1,-1,-1,-1,-1,-1,-1,-1,-1,-1,-1,-1,-1],"loss_changes":[4.7943265E2,2.9058405E2,3.0327228E2,1.7251913E2,1.9507593E2,2.5376117E2,8.683331E1,1.5876184E2,1.1124155E2,1.24015015E2,1.2400267E2,1.452412E2,8.3321045E1,3.0186218E1,7.975122E1,0E0,0E0,0E0,0E0,0E0,0E0,0E0,0E0,0E0,0E0,0E0,0E0,0E0,0E0,0E0,0E0],"parents":[2147483647,0,0,1,1,2,2,3,3,4,4,5,5,6,6,7,7,8,8,9,9,10,10,11,11,12,12,13,13,14,14],"right_children":[2,4,6,8,10,12,14,16,18,20,22,24,26,28,30,-1,-1,-1,-1,-1,-1,-1,-1,-1,-1,-1,-1,-1,-1,-1,-1],"split_conditions":[1E0,7E0,6E1,6E0,1E1,6E0,2.434E3,6.68E0,4.6E4,1.395E-1,2.73E1,2E0,7.2E1,9.95E3,9.38E1,-3.9162535E-2,-1.3551313E-3,2.6253074E-2,4.938761E-3,-3.131185E-2,-1.3005845E-2,-1.9906806E-2,-3.523996E-3,-3.8638224E-3,7.5854026E-3,8.31073E-3,2.9002288E-2,-4.4750225E-2,2.4864528E-2,1.9896394E-2,6.830933E-3],"split_indices":[8,7,2,7,16,22,25,3,9,30,19,36,15,0,23,0,0,0,0,0,0,0,0,0,0,0,0,0,0,0,0],"split_type":[0,0,0,0,0,0,0,0,0,0,0,0,0,0,0,0,0,0,0,0,0,0,0,0,0,0,0,0,0,0,0],"sum_hessian":[2.3316088E5,1.0866691E5,1.2449397E5,5.1070723E4,5.7596184E4,9.546448E4,2.9029494E4,3.9522434E4,1.1548286E4,1.8045613E4,3.955057E4,6.947672E4,2.5987762E4,5.854477E3,2.3175016E4,1.1417957E3,3.838064E4,3.522517E3,8.025769E3,5.199917E3,1.2845696E4,5.3397734E3,3.4210797E4,5.5644035E4,1.3832682E4,2.3870363E4,2.1173992E3,6.1210346E1,5.7932666E3,6.4886626E3,1.6686354E4],"tree_param":{"num_deleted":"0","num_feature":"37","num_nodes":"31","size_leaf_vector":"1"}},{"base_weights":[-2.6614754E-3,2.379131E-2,-7.506602E-2,4.7420505E-2,-6.0603928E-2,-1.03034995E-1,3.6503043E-2,1.14976745E-2,1.08770885E-1,1.912561E-2,-1.4209971E-1,-1.2742336E-1,2.1802386E-2,-3.1663948E-1,7.740428E-2,-8.846307E-3,3.9162426E-3,1.615459E-2,5.6871204E-3,-5.9044394E-3,1.3546266E-2,-1.6769191E-2,1.0011393E-2,-4.7082283E-2,-1.1988998E-2,3.155189E-2,-3.063911E-4,-4.9567346E-2,-1.1430787E-2,1.4222683E-2,-8.9997373E-4],"categories":[],"categories_nodes":[],"categories_segments":[],"categories_sizes":[],"default_left":[0,0,0,0,0,0,0,0,0,0,0,0,0,0,0,0,0,0,0,0,0,0,0,0,0,0,0,0,0,0,0],"id":33,"left_children":[1,3,5,7,9,11,13,15,17,19,21,23,25,27,29,-1,-1,-1,-1,-1,-1,-1,-1,-1,-1,-1,-1,-1,-1,-1,-1],"loss_changes":[4.4587433E2,3.4002182E2,1.9439035E2,2.9357306E2,2.4234492E2,1.5164795E2,1.8041695E2,2.3234694E2,1.3472284E2,1.71479E2,1.1436539E2,1.07678955E2,5.946713E1,4.685399E1,6.2692924E1,0E0,0E0,0E0,0E0,0E0,0E0,0E0,0E0,0E0,0E0,0E0,0E0,0E0,0E0,0E0,0E0],"parents":[2147483647,0,0,1,1,2,2,3,3,4,4,5,5,6,6,7,7,8,8,9,9,10,10,11,11,12,12,13,13,14,14],"right_children":[2,4,6,8,10,12,14,16,18,20,22,24,26,28,30,-1,-1,-1,-1,-1,-1,-1,-1,-1,-1,-1,-1,-1,-1,-1,-1],"split_conditions":[2E0,2.2061E4,7E0,2.667E-1,6.5981E2,3.045E-1,1.59E1,1.21849E2,1.0189E4,7E0,1.2E1,3.08E-2,2.798E3,6.27E-2,1.14298E5,-8.846307E-3,3.9162426E-3,1.615459E-2,5.6871204E-3,-5.9044394E-3,1.3546266E-2,-1.6769191E-2,1.0011393E-2,-4.7082283E-2,-1.1988998E-2,3.155189E-2,-3.063911E-4,-4.9567346E-2,-1.1430787E-2,1.4222683E-2,-8.9997373E-4],"split_indices":[10,18,22,30,4,30,19,32,18,22,22,30,18,31,28,0,0,0,0,0,0,0,0,0,0,0,0,0,0,0,0],"split_type":[0,0,0,0,0,0,0,0,0,0,0,0,0,0,0,0,0,0,0,0,0,0,0,0,0,0,0,0,0,0,0],"sum_hessian":[2.3279197E5,1.705012E5,6.229076E4,1.3320656E5,3.729464E4,4.980534E4,1.2485423E4,8.40151E4,4.919146E4,1.8852379E4,1.8442262E4,4.1665484E4,8.139855E3,1.2945713E3,1.1190852E4,1.821059E4,6.5804516E4,2.4387959E4,2.48035E4,1.1276428E4,7.5759517E3,1.6680432E4,1.7618312E3,8.917803E2,4.0773707E4,6.335142E2,7.506341E3,6.8529004E2,6.0928125E2,6.393208E3,4.7976436E3],"tree_param":{"num_deleted":"0","num_feature":"37","num_nodes":"31","size_leaf_vector":"1"}},{"base_weights":[5.4834166E-4,1.2585458E-2,-1.3395208E-1,-2.3555804E-2,5.590995E-2,-7.8124374E-2,-2.3782656E-1,-4.2875327E-2,7.626166E-2,1.7340228E-2,1.0988901E-1,-8.650029E-3,-1.2762004E-1,-2.6625782E-1,5.9570823E-2,-3.3057712E-2,-3.5864152E-3,2.3155479E-2,3.65493E-3,6.8353615E-3,-2.033712E-3,2.3641942E-2,5.5370047E-3,-6.5889494E-3,1.1304385E-2,-5.2880324E-2,-1.1526709E-2,-1.1311549E-2,-3.196099E-2,2.2550441E-2,-1.1997842E-2],"categories":[],"categories_nodes":[],"categories_segments":[],"categories_sizes":[],"default_left":[0,0,0,0,0,0,0,0,0,0,0,0,0,0,0,0,0,0,0,0,0,0,0,0,0,0,0,0,0,0,0],"id":34,"left_children":[1,3,5,7,9,11,13,15,17,19,21,23,25,27,29,-1,-1,-1,-1,-1,-1,-1,-1,-1,-1,-1,-1,-1,-1,-1,-1],"loss_changes":[3.7665173E2,3.343556E2,1.1078485E2,2.2451363E2,2.0218924E2,4.275025E1,5.6509247E1,1.9673134E2,1.164148E2,1.0887866E2,2.791695E2,3.605977E1,3.5858093E1,4.9743073E1,1.7467514E1,0E0,0E0,0E0,0E0,0E0,0E0,0E0,0E0,0E0,0E0,0E0,0E0,0E0,0E0,0E0,0E0],"parents":[2147483647,0,0,1,1,2,2,3,3,4,4,5,5,6,6,7,7,8,8,9,9,10,10,11,11,12,12,13,13,14,14],"right_children":[2,4,6,8,10,12,14,16,18,20,22,24,26,28,30,-1,-1,-1,-1,-1,-1,-1,-1,-1,-1,-1,-1,-1,-1,-1,-1],"split_conditions":[5E0,1E0,6.77966E3,1E0,1.455E4,7E0,2.1E1,1.66E-2,3.1E1,2.54065E3,1.0189E4,6E0,1.92E-2,2E1,4.8E-2,-3.3057712E-2,-3.5864152E-3,2.3155479E-2,3.65493E-3,6.8353615E-3,-2.033712E-3,2.3641942E-2,5.5370047E-3,-6.5889494E-3,1.1304385E-2,-5.2880324E-2,-1.1526709E-2,-1.1311549E-2,-3.196099E-2,2.2550441E-2,-1.1997842E-2],"split_indices":[21,36,35,17,0,7,16,31,14,35,18,7,31,14,31,0,0,0,0,0,0,0,0,0,0,0,0,0,0,0,0],"split_type":[0,0,0,0,0,0,0,0,0,0,0,0,0,0,0,0,0,0,0,0,0,0,0,0,0,0,0,0,0,0,0],"sum_hessian":[2.3264097E5,2.1353267E5,1.9108297E4,1.16417875E5,9.7114805E4,1.2430815E4,6.677481E3,9.754024E4,1.8877627E4,5.664373E4,4.047107E4,5.172629E3,7.2581865E3,6.0950063E3,5.824748E2,2.3182705E3,9.522198E4,3.8424124E3,1.5035215E4,2.4062541E4,3.2581191E4,1.2184946E4,2.8286123E4,3.5185664E3,1.6540623E3,2.1431523E2,7.043871E3,1.5763828E3,4.5186235E3,3.0244916E2,2.800256E2],"tree_param":{"num_deleted":"0","num_feature":"37","num_nodes":"31","size_leaf_vector":"1"}},{"base_weights":[-1.7590262E-3,-4.4094954E-2,3.5058603E-2,-7.171499E-2,3.7277166E-2,1.2122657E-2,1.314154E-1,-2.676896E-1,-5.9677746E-2,-2.687575E-2,8.8690124E-2,-1.2976821E-2,9.9530004E-2,1.0527029E-1,2.3606734E-1,-4.5356523E-2,-1.4451794E-2,-4.0270854E-3,-1.7427405E-2,-7.3667862E-3,6.294003E-3,7.350193E-3,3.1651244E-2,1.4800583E-3,-8.000058E-3,1.310717E-2,-1.8048855E-3,1.3673921E-2,9.4452436E-4,1.3120161E-1,2.1945426E-2],"categories":[],"categories_nodes":[],"categories_segments":[],"categories_sizes":[],"default_left":[0,0,0,0,0,0,0,0,0,0,0,0,0,0,0,0,0,0,0,0,0,0,0,0,0,0,0,0,0,0,0],"id":35,"left_children":[1,3,5,7,9,11,13,15,17,19,21,23,25,27,29,-1,-1,-1,-1,-1,-1,-1,-1,-1,-1,-1,-1,-1,-1,-1,-1],"loss_changes":[3.619656E2,2.4277112E2,2.744955E2,1.902066E2,9.029203E1,2.2010849E2,6.52901E1,1.0669824E2,1.6896185E2,5.1196373E1,5.2535805E1,1.4511942E2,8.301343E1,5.7625244E1,8.472E1,0E0,0E0,0E0,0E0,0E0,0E0,0E0,0E0,0E0,0E0,0E0,0E0,0E0,0E0,0E0,0E0],"parents":[2147483647,0,0,1,1,2,2,3,3,4,4,5,5,6,6,7,7,8,8,9,9,10,10,11,11,12,12,13,13,14,14],"right_children":[2,4,6,8,10,12,14,16,18,20,22,24,26,28,30,-1,-1,-1,-1,-1,-1,-1,-1,-1,-1,-1,-1,-1,-1,-1,-1],"split_conditions":[1E0,2E0,7E0,1.59E1,1.75E-1,6E1,7.95E1,5.24E-2,3.2967E4,6E0,3E0,2E0,2E0,2E0,5E0,-4.5356523E-2,-1.4451794E-2,-4.0270854E-3,-1.7427405E-2,-7.3667862E-3,6.294003E-3,7.350193E-3,3.1651244E-2,1.4800583E-3,-8.000058E-3,1.310717E-2,-1.8048855E-3,1.3673921E-2,9.4452436E-4,1.3120161E-1,2.1945426E-2],"split_indices":[8,36,22,19,30,2,26,31,25,22,12,10,8,8,6,0,0,0,0,0,0,0,0,0,0,0,0,0,0,0,0],"split_type":[0,0,0,0,0,0,0,0,0,0,0,0,0,0,0,0,0,0,0,0,0,0,0,0,0,0,0,0,0,0,0],"sum_hessian":[2.322175E5,1.0801389E5,1.2420361E5,8.064194E4,2.7371953E4,1.0032529E5,2.387832E4,4.664135E3,7.5977805E4,1.2177661E4,1.5194291E4,7.794475E4,2.238054E4,1.9108477E4,4.769844E3,1.8567655E3,2.8073691E3,6.49767E4,1.1001104E4,8.0067E3,4.170961E3,1.4247126E4,9.471654E2,5.5107496E4,2.2837254E4,1.764647E4,4.7340693E3,1.4383941E4,4.724535E3,7.0157135E1,4.699687E3],"tree_param":{"num_deleted":"0","num_feature":"37","num_nodes":"31","size_leaf_vector":"1"}},{"base_weights":[-3.6787125E-3,-2.705032E-2,6.1417364E-2,5.607991E-2,-4.9180336E-2,3.9956555E-2,1.7073879E-1,2.0722121E-2,1.5570012E-1,-6.2198628E-2,1.0852482E-1,2.6917133E-2,1.734335E-1,1.5739542E-2,2.1772593E-1,-7.4196644E-3,6.67068E-3,2.8877107E-2,1.1417328E-2,-1.0090525E-2,-1.6207955E-3,3.9045934E-3,2.0283204E-2,1.5284773E-3,1.4720703E-2,2.186575E-2,7.351711E-4,-1.068816E-2,1.3008359E-2,2.8354058E-2,1.2142309E-2],"categories":[],"categories_nodes":[],"categories_segments":[],"categories_sizes":[],"default_left":[0,0,0,0,0,0,0,0,0,0,0,0,0,0,0,0,0,0,0,0,0,0,0,0,0,0,0,0,0,0,0],"id":36,"left_children":[1,3,5,7,9,11,13,15,17,19,21,23,25,27,29,-1,-1,-1,-1,-1,-1,-1,-1,-1,-1,-1,-1,-1,-1,-1,-1],"loss_changes":[3.5349722E2,3.1452893E2,1.439982E2,1.2660513E2,2.772243E2,8.929861E1,7.3347534E1,1.1581517E2,5.196492E1,2.2203229E2,6.7452446E1,6.540857E1,3.4293564E1,3.2909412E1,4.8917877E1,0E0,0E0,0E0,0E0,0E0,0E0,0E0,0E0,0E0,0E0,0E0,0E0,0E0,0E0,0E0,0E0],"parents":[2147483647,0,0,1,1,2,2,3,3,4,4,5,5,6,6,7,7,8,8,9,9,10,10,11,11,12,12,13,13,14,14],"right_children":[2,4,6,8,10,12,14,16,18,20,22,24,26,28,30,-1,-1,-1,-1,-1,-1,-1,-1,-1,-1,-1,-1,-1,-1,-1,-1],"split_conditions":[2.451E1,2.434E3,1E0,1.44E4,2E0,6.89891E2,3.09463E2,2.70736E2,1.197E3,1E0,1.6E4,2E0,3E0,1.3E1,6.923E3,-7.4196644E-3,6.67068E-3,2.8877107E-2,1.1417328E-2,-1.0090525E-2,-1.6207955E-3,3.9045934E-3,2.0283204E-2,1.5284773E-3,1.4720703E-2,2.186575E-2,7.351711E-4,-1.068816E-2,1.3008359E-2,2.8354058E-2,1.2142309E-2],"split_indices":[11,25,17,0,12,32,34,34,25,36,0,29,21,16,25,0,0,0,0,0,0,0,0,0,0,0,0,0,0,0,0],"split_type":[0,0,0,0,0,0,0,0,0,0,0,0,0,0,0,0,0,0,0,0,0,0,0,0,0,0,0,0,0,0,0],"sum_hessian":[2.323458E5,1.7096498E5,6.1380816E4,3.59432E4,1.3502178E5,5.1310766E4,1.0070048E4,2.652958E4,9.413618E3,1.2472699E5,1.029479E4,4.6746484E4,4.5642812E3,2.3431687E3,7.7268794E3,8.657686E3,1.7871895E4,2.23613E3,7.177488E3,6.772552E4,5.7001465E4,5.9293164E3,4.3654736E3,4.262663E4,4.1198574E3,3.5869294E3,9.773521E2,1.1307245E3,1.2124443E3,4.5876973E3,3.1391821E3],"tree_param":{"num_deleted":"0","num_feature":"37","num_nodes":"31","size_leaf_vector":"1"}},{"base_weights":[4.8265066E-3,-2.9634414E-3,1.5900908E-1,-2.5459409E-2,5.196599E-2,-7.9048306E-2,2.1335244E-1,-2.8151162E-3,-7.8286044E-2,1.2844431E-1,1.7433032E-2,-1.9672397E-1,7.450599E-2,1.8404262E-1,5.40188E-1,1.1302792E-3,-1.2537012E-2,-3.069157E-2,-6.800289E-3,-2.8779453E-3,1.5042366E-2,7.7588023E-3,-3.1005875E-3,-3.4963273E-2,-1.2174953E-3,9.980796E-3,-1.3923103E-1,5.266417E-3,2.412114E-2,7.0554465E-2,3.5896193E-2],"categories":[],"categories_nodes":[],"categories_segments":[],"categories_sizes":[],"default_left":[0,0,0,0,0,0,0,0,0,0,0,0,0,0,0,0,0,0,0,0,0,0,0,0,0,0,0,0,0,0,0],"id":37,"left_children":[1,3,5,7,9,11,13,15,17,19,21,23,25,27,29,-1,-1,-1,-1,-1,-1,-1,-1,-1,-1,-1,-1,-1,-1,-1,-1],"loss_changes":[2.7924146E2,2.734767E2,1.4468799E2,1.878202E2,1.6982147E2,3.760655E1,8.701282E1,1.901608E2,1.1071478E2,6.913208E1,1.2909462E2,3.323042E1,3.3817127E1,6.2747864E1,2.191478E1,0E0,0E0,0E0,0E0,0E0,0E0,0E0,0E0,0E0,0E0,0E0,0E0,0E0,0E0,0E0,0E0],"parents":[2147483647,0,0,1,1,2,2,3,3,4,4,5,5,6,6,7,7,8,8,9,9,10,10,11,11,12,12,13,13,14,14],"right_children":[2,4,6,8,10,12,14,16,18,20,22,24,26,28,30,-1,-1,-1,-1,-1,-1,-1,-1,-1,-1,-1,-1,-1,-1,-1,-1],"split_conditions":[4E0,6E1,4.8E3,2E0,2.69231E3,5E0,3.2E4,3.0674E4,6.49E0,2.99E1,9.69E1,2.61E-2,3.9625E5,3.49E1,1.629E1,1.1302792E-3,-1.2537012E-2,-3.069157E-2,-6.800289E-3,-2.8779453E-3,1.5042366E-2,7.7588023E-3,-3.1005875E-3,-3.4963273E-2,-1.2174953E-3,9.980796E-3,-1.3923103E-1,5.266417E-3,2.412114E-2,7.0554465E-2,3.5896193E-2],"split_indices":[29,2,0,10,35,29,0,18,3,19,23,31,28,26,3,0,0,0,0,0,0,0,0,0,0,0,0,0,0,0,0],"split_type":[0,0,0,0,0,0,0,0,0,0,0,0,0,0,0,0,0,0,0,0,0,0,0,0,0,0,0,0,0,0,0],"sum_hessian":[2.3249028E5,2.213107E5,1.117958E4,1.5700958E5,6.4301117E4,2.0775823E3,9.101998E3,1.09901914E5,4.7107676E4,2.000085E4,4.4300266E4,1.1758854E3,9.016969E2,8.355797E3,7.4620135E2,9.8551E4,1.1350915E4,2.0251003E3,4.5082574E4,2.453038E3,1.754781E4,1.9759842E4,2.4540426E4,6.420902E2,5.337951E2,8.882391E2,1.3457837E1,2.5346978E3,5.821099E3,3.8715866E2,3.5904266E2],"tree_param":{"num_deleted":"0","num_feature":"37","num_nodes":"31","size_leaf_vector":"1"}},{"base_weights":[1.1491494E-3,-2.112446E-1,7.450901E-3,-1.7841816E-1,-4.9211964E-1,-6.842623E-4,1.7724459E-1,-2.3244059E-1,2.7540969E-2,1.8062344E-1,-5.8926594E-1,-2.2297962E-2,5.788254E-2,1.1770212E-1,2.8454447E-1,-5.3952277E-2,-1.9433783E-2,-4.141334E-3,3.8274687E-2,-5.6233566E-2,5.017286E-2,-3.4173314E-2,-7.2453536E-2,-5.034266E-4,-1.0048185E-2,1.0868827E-2,2.2021814E-3,-7.430737E-3,1.6236987E-2,3.9041806E-2,2.2903323E-2],"categories":[],"categories_nodes":[],"categories_segments":[],"categories_sizes":[],"default_left":[0,0,0,0,0,0,0,0,0,0,0,0,0,0,0,0,0,0,0,0,0,0,0,0,0,0,0,0,0,0,0],"id":38,"left_children":[1,3,5,7,9,11,13,15,17,19,21,23,25,27,29,-1,-1,-1,-1,-1,-1,-1,-1,-1,-1,-1,-1,-1,-1,-1,-1],"loss_changes":[3.1066748E2,6.149115E1,3.1137387E2,6.6677155E1,4.587863E1,2.7230646E2,6.578064E1,5.5330475E1,3.0569298E1,2.1963633E1,1.996463E1,2.1208447E2,1.0564517E2,5.6902504E1,2.1430267E1,0E0,0E0,0E0,0E0,0E0,0E0,0E0,0E0,0E0,0E0,0E0,0E0,0E0,0E0,0E0,0E0],"parents":[2147483647,0,0,1,1,2,2,3,3,4,4,5,5,6,6,7,7,8,8,9,9,10,10,11,11,12,12,13,13,14,14],"right_children":[2,4,6,8,10,12,14,16,18,20,22,24,26,28,30,-1,-1,-1,-1,-1,-1,-1,-1,-1,-1,-1,-1,-1,-1,-1,-1],"split_conditions":[4.44E-2,3.5088E4,4E0,1.3542E2,8E0,2.451E1,4.5384E2,1.82E-2,6.521739E4,1.12E5,9.878E1,2.1811E4,9.67E1,2.26E1,9.43E1,-5.3952277E-2,-1.9433783E-2,-4.141334E-3,3.8274687E-2,-5.6233566E-2,5.017286E-2,-3.4173314E-2,-7.2453536E-2,-5.034266E-4,-1.0048185E-2,1.0868827E-2,2.2021814E-3,-7.430737E-3,1.6236987E-2,3.9041806E-2,2.2903323E-2],"split_indices":[30,25,29,4,14,11,4,30,35,9,4,18,23,26,23,0,0,0,0,0,0,0,0,0,0,0,0,0,0,0,0],"split_type":[0,0,0,0,0,0,0,0,0,0,0,0,0,0,0,0,0,0,0,0,0,0,0,0,0,0,0,0,0,0,0],"sum_hessian":[2.3210508E5,6.686277E3,2.2541881E5,5.9895376E3,6.967392E2,2.1511423E5,1.0304571E4,4.744748E3,1.2447897E3,8.769917E1,6.0904E2,1.571283E5,5.798594E4,6.6297876E3,3.6747842E3,5.2083716E2,4.2239106E3,1.043908E3,2.0088171E2,2.601177E1,6.16874E1,2.1770639E2,3.9133362E2,1.2871009E5,2.8418201E4,2.3991664E4,3.3994277E4,1.2509794E3,5.378808E3,1.2598582E3,2.414926E3],"tree_param":{"num_deleted":"0","num_feature":"37","num_nodes":"31","size_leaf_vector":"1"}},{"base_weights":[-6.0683343E-4,-2.942681E-1,3.3675102E-3,3.2852788E-2,-3.3865064E-1,-2.433649E-2,4.04182E-2,8.24005E-2,-1.3479967E0,-7.169106E-2,-4.1157073E-1,-4.835844E-2,7.634871E-2,2.8495856E-2,1.7575851E-1,4.2821663E-3,1.5701005E-1,-1.7566566E-1,-5.2469708E-2,-1.7440049E-2,6.0138267E-2,-4.4962958E-2,1.1197478E-2,5.5346065E-3,-6.5622265E-3,1.17883505E-2,1.6658591E-3,6.0710637E-3,-1.5591246E-3,3.4449797E-2,1.1398537E-2],"categories":[],"categories_nodes":[],"categories_segments":[],"categories_sizes":[],"default_left":[0,0,0,0,0,0,0,0,0,0,0,0,0,0,0,0,0,0,0,0,0,0,0,0,0,0,0,0,0,0,0],"id":39,"left_children":[1,3,5,7,9,11,13,15,17,19,21,23,25,27,29,-1,-1,-1,-1,-1,-1,-1,-1,-1,-1,-1,-1,-1,-1,-1,-1],"loss_changes":[2.7058395E2,4.496826E1,2.3479822E2,2.565093E1,5.300946E1,3.1656696E2,1.5790228E2,2.1102821E1,2.5268803E0,4.0810482E1,4.275757E1,1.8919609E2,6.250273E1,1.2774565E2,8.250458E1,0E0,0E0,0E0,0E0,0E0,0E0,0E0,0E0,0E0,0E0,0E0,0E0,0E0,0E0,0E0,0E0],"parents":[2147483647,0,0,1,1,2,2,3,3,4,4,5,5,6,6,7,7,8,8,9,9,10,10,11,11,12,12,13,13,14,14],"right_children":[2,4,6,8,10,12,14,16,18,20,22,24,26,28,30,-1,-1,-1,-1,-1,-1,-1,-1,-1,-1,-1,-1,-1,-1,-1,-1],"split_conditions":[6.24E0,4.35E4,5E0,6E1,9.62E1,3.333E-1,7.4E1,3E0,5.38E3,7.2798E2,1.2E1,1.6E1,7E0,2E0,1.155E1,4.2821663E-3,1.5701005E-1,-1.7566566E-1,-5.2469708E-2,-1.7440049E-2,6.0138267E-2,-4.4962958E-2,1.1197478E-2,5.5346065E-3,-6.5622265E-3,1.17883505E-2,1.6658591E-3,6.0710637E-3,-1.5591246E-3,3.4449797E-2,1.1398537E-2],"split_indices":[3,9,22,33,23,30,15,13,25,4,22,14,7,21,3,0,0,0,0,0,0,0,0,0,0,0,0,0,0,0,0],"split_type":[0,0,0,0,0,0,0,0,0,0,0,0,0,0,0,0,0,0,0,0,0,0,0,0,0,0,0,0,0,0,0],"sum_hessian":[2.3183717E5,3.093783E3,2.2874339E5,3.6966833E2,2.7241147E3,1.3088049E5,9.786289E4,3.5867886E2,1.0989481E1,5.85301E2,2.1388137E3,1.0567023E5,2.5210262E4,8.9942164E4,7.920729E3,3.5138806E2,7.290778E0,5.828862E0,5.1606193E0,5.0909595E2,7.620505E1,1.9941337E3,1.4468002E2,1.5079944E4,9.059028E4,1.486479E4,1.0345472E4,5.1967996E4,3.7974168E4,2.1201572E3,5.800572E3],"tree_param":{"num_deleted":"0","num_feature":"37","num_nodes":"31","size_leaf_vector":"1"}},{"base_weights":[6.6231145E-4,-2.016308E-1,6.636938E-3,-3.0166098E-1,-1.0758257E-1,-7.7942223E-3,8.1157275E-2,-3.8563064E-1,-1.15597814E-1,-2.5120196E-1,-2.4206763E-2,-4.2197544E-2,3.0886553E-2,1.9595715E-1,5.9388492E-2,3.393263E-2,-4.1328456E-2,-2.0212668E-3,-6.135417E-2,-3.0339284E-2,2.9922066E-2,5.425319E-3,-2.1641938E-2,-6.0790307E-3,4.86595E-3,4.2211623E-3,-8.9571895E-3,1.3892035E-2,4.5061525E-2,1.9602352E-3,1.2773903E-2],"categories":[],"categories_nodes":[],"categories_segments":[],"categories_sizes":[],"default_left":[0,0,0,0,0,0,0,0,0,0,0,0,0,0,0,0,0,0,0,0,0,0,0,0,0,0,0,0,0,0,0],"id":40,"left_children":[1,3,5,7,9,11,13,15,17,19,21,23,25,27,29,-1,-1,-1,-1,-1,-1,-1,-1,-1,-1,-1,-1,-1,-1,-1,-1],"loss_changes":[2.8010748E2,6.248163E1,2.420861E2,5.022943E1,4.1057617E1,2.509674E2,9.1244415E1,4.47529E1,4.7678596E1,3.6364998E1,3.2783054E1,1.6862071E2,1.21117134E2,8.441681E1,8.348727E1,0E0,0E0,0E0,0E0,0E0,0E0,0E0,0E0,0E0,0E0,0E0,0E0,0E0,0E0,0E0,0E0],"parents":[2147483647,0,0,1,1,2,2,3,3,4,4,5,5,6,6,7,7,8,8,9,9,10,10,11,11,12,12,13,13,14,14],"right_children":[2,4,6,8,10,12,14,16,18,20,22,24,26,28,30,-1,-1,-1,-1,-1,-1,-1,-1,-1,-1,-1,-1,-1,-1,-1,-1],"split_conditions":[4.44E-2,1.546E1,9.2E1,1.4315E2,2E3,1E0,1.153E1,6E0,4.6113E4,5E0,2.041E4,1E0,5E0,1.139E1,6E1,3.393263E-2,-4.1328456E-2,-2.0212668E-3,-6.135417E-2,-3.0339284E-2,2.9922066E-2,5.425319E-3,-2.1641938E-2,-6.0790307E-3,4.86595E-3,4.2211623E-3,-8.9571895E-3,1.3892035E-2,4.5061525E-2,1.9602352E-3,1.2773903E-2],"split_indices":[30,11,26,4,0,13,3,20,25,29,25,17,21,3,2,0,0,0,0,0,0,0,0,0,0,0,0,0,0,0,0],"split_type":[0,0,0,0,0,0,0,0,0,0,0,0,0,0,0,0,0,0,0,0,0,0,0,0,0,0,0,0,0,0,0],"sum_hessian":[2.3175277E5,6.6464683E3,2.251063E5,3.218665E3,3.427803E3,1.8858739E5,3.651891E4,2.2163079E3,1.0023572E3,1.2575605E3,2.1702424E3,9.981241E4,8.8774984E4,5.818493E3,3.0700416E4,8.06078E1,2.1357002E3,8.429622E2,1.5939499E2,1.1494662E3,1.0809437E2,1.5421729E3,6.280696E2,8.285734E4,1.6955059E4,8.1147125E4,7.627861E3,4.756297E3,1.0621962E3,1.9406605E4,1.1293811E4],"tree_param":{"num_deleted":"0","num_feature":"37","num_nodes":"31","size_leaf_vector":"1"}},{"base_weights":[3.3242986E-4,-1.7975096E-2,6.046361E-2,1.2656224E-2,-5.6409676E-2,1.1102216E-1,2.5768297E-2,-2.9383782E-2,1.7565756E-1,-2.2301767E-2,-1.3618036E-1,9.639131E-2,3.5721615E-1,1.4516784E-1,7.677829E-3,-5.5928375E-3,4.4513484E-3,2.8290126E-2,1.3037369E-2,-9.94683E-3,1.6107898E-3,-2.7887538E-2,-1.1210465E-2,8.197754E-3,3.0562699E-2,7.8701265E-2,2.716579E-2,-6.0517322E-2,1.5291564E-2,-3.5336634E-4,1.7372878E-2],"categories":[],"categories_nodes":[],"categories_segments":[],"categories_sizes":[],"default_left":[0,0,0,0,0,0,0,0,0,0,0,0,0,0,0,0,0,0,0,0,0,0,0,0,0,0,0,0,0,0,0],"id":41,"left_children":[1,3,5,7,9,11,13,15,17,19,21,23,25,27,29,-1,-1,-1,-1,-1,-1,-1,-1,-1,-1,-1,-1,-1,-1,-1,-1],"loss_changes":[2.5476907E2,2.088707E2,9.47449E1,6.7657025E2,2.140803E2,7.910983E1,6.919438E1,1.5396783E2,9.823566E1,1.6337622E2,8.0900116E1,6.2533493E1,4.4887863E1,2.4689034E1,5.179787E1,0E0,0E0,0E0,0E0,0E0,0E0,0E0,0E0,0E0,0E0,0E0,0E0,0E0,0E0,0E0,0E0],"parents":[2147483647,0,0,1,1,2,2,3,3,4,4,5,5,6,6,7,7,8,8,9,9,10,10,11,11,12,12,13,13,14,14],"right_children":[2,4,6,8,10,12,14,16,18,20,22,24,26,28,30,-1,-1,-1,-1,-1,-1,-1,-1,-1,-1,-1,-1,-1,-1,-1,-1],"split_conditions":[2E0,7E0,2.4E1,6E0,3E0,3E4,9E0,1.92E4,3.6E4,9E0,3.25E1,9.69E1,1.4405E2,1.09E-2,8.1E1,-5.5928375E-3,4.4513484E-3,2.8290126E-2,1.3037369E-2,-9.94683E-3,1.6107898E-3,-2.7887538E-2,-1.1210465E-2,8.197754E-3,3.0562699E-2,7.8701265E-2,2.716579E-2,-6.0517322E-2,1.5291564E-2,-3.5336634E-4,1.7372878E-2],"split_indices":[36,7,20,7,21,0,14,0,9,16,26,26,34,31,15,0,0,0,0,0,0,0,0,0,0,0,0,0,0,0,0],"split_type":[0,0,0,0,0,0,0,0,0,0,0,0,0,0,0,0,0,0,0,0,0,0,0,0,0,0,0,0,0,0,0],"sum_hessian":[2.3142478E5,1.7741152E5,5.4013266E4,9.872873E4,7.868278E4,2.1979703E4,3.2033562E4,7.848749E4,2.024123E4,5.5118203E4,2.356458E4,2.0749389E4,1.2303145E3,4.2130186E3,2.7820543E4,5.774532E4,2.0742174E4,6.006297E3,1.4234934E4,1.8316484E4,3.680172E4,3.398823E3,2.0165756E4,1.9414734E4,1.3346537E3,2.0153233E2,1.0287821E3,4.1481625E1,4.171537E3,2.6062783E4,1.7577598E3],"tree_param":{"num_deleted":"0","num_feature":"37","num_nodes":"31","size_leaf_vector":"1"}},{"base_weights":[-7.483265E-4,-1.4210232E-2,8.266149E-2,1.5264008E-3,-9.52472E-2,-7.829923E-2,1.0660437E-1,-2.2174714E-2,1.0077758E-1,-2.9307647E-2,-1.566095E-1,-1.7154004E-1,1.21499345E-1,1.9105451E-1,6.67643E-2,-1.3003241E-4,-1.052954E-2,1.7326225E-2,1.2606444E-3,5.1151606E-4,-1.2784283E-2,-6.6050063E-3,-2.1864032E-2,-1.8454438E-2,7.429108E-2,-5.3031232E-2,1.8409528E-2,2.65973E-2,8.04649E-3,1.1633913E-2,1.6002611E-3],"categories":[],"categories_nodes":[],"categories_segments":[],"categories_sizes":[],"default_left":[0,0,0,0,0,0,0,0,0,0,0,0,0,0,0,0,0,0,0,0,0,0,0,0,0,0,0,0,0,0,0],"id":42,"left_children":[1,3,5,7,9,11,13,15,17,19,21,23,25,27,29,-1,-1,-1,-1,-1,-1,-1,-1,-1,-1,-1,-1,-1,-1,-1,-1],"loss_changes":[2.5989096E2,2.5414584E2,1.2397438E2,3.9258014E2,1.3111728E2,7.7653305E1,9.4181946E1,2.337468E2,2.055982E2,5.2993973E1,9.4265015E1,3.4062813E1,5.4327995E1,7.431033E1,4.7880844E1,0E0,0E0,0E0,0E0,0E0,0E0,0E0,0E0,0E0,0E0,0E0,0E0,0E0,0E0,0E0,0E0],"parents":[2147483647,0,0,1,1,2,2,3,3,4,4,5,5,6,6,7,7,8,8,9,9,10,10,11,11,12,12,13,13,14,14],"right_children":[2,4,6,8,10,12,14,16,18,20,22,24,26,28,30,-1,-1,-1,-1,-1,-1,-1,-1,-1,-1,-1,-1,-1,-1,-1,-1],"split_conditions":[8E0,2.2061E4,2.2E1,2E4,5.8045E2,5.6221E2,1.155E1,6.20821E3,1.2811E4,5.60748E3,9.75E1,2.07E5,3E0,5.3308E2,2.2061E4,-1.3003241E-4,-1.052954E-2,1.7326225E-2,1.2606444E-3,5.1151606E-4,-1.2784283E-2,-6.6050063E-3,-2.1864032E-2,-1.8454438E-2,7.429108E-2,-5.3031232E-2,1.8409528E-2,2.65973E-2,8.04649E-3,1.1633913E-2,1.6002611E-3],"split_indices":[22,18,26,0,4,4,3,35,18,35,23,9,6,4,18,0,0,0,0,0,0,0,0,0,0,0,0,0,0,0,0],"split_type":[0,0,0,0,0,0,0,0,0,0,0,0,0,0,0,0,0,0,0,0,0,0,0,0,0,0,0,0,0,0,0],"sum_hessian":[2.3145144E5,1.992889E5,3.2162523E4,1.6688361E5,3.2405297E4,4.1640874E3,2.7998436E4,1.3471525E5,3.216836E4,1.5621493E4,1.6783805E4,2.839329E3,1.3247582E3,8.972203E3,1.9026232E4,1.0767619E5,2.7039068E4,1.7653584E4,1.4514774E4,1.1578495E4,4.0429976E3,6.8246123E3,9.959192E3,2.8010913E3,3.8237755E1,1.1476506E2,1.2099932E3,5.347053E3,3.6251501E3,9.62434E3,9.401893E3],"tree_param":{"num_deleted":"0","num_feature":"37","num_nodes":"31","size_leaf_vector":"1"}},{"base_weights":[1.4470152E-3,-3.1163827E-2,2.9907295E-2,3.0365374E-2,-5.549526E-2,1.3692163E-2,1.0332444E-1,-1.8567223E-2,8.768213E-2,-1.4169003E-1,-2.837438E-2,7.964911E-3,2.3013884E-1,5.763117E-2,2.3961909E-1,-1.9931316E-4,-2.1260161E-2,1.5193567E-2,-2.1883655E-4,-2.5043383E-2,-6.6567445E-3,-4.7072308E-4,-1.154713E-2,1.447689E-2,-1.0851747E-4,4.783329E-2,1.9904125E-2,-9.230923E-5,1.6517939E-2,-2.4544649E-2,2.613236E-2],"categories":[],"categories_nodes":[],"categories_segments":[],"categories_sizes":[],"default_left":[0,0,0,0,0,0,0,0,0,0,0,0,0,0,0,0,0,0,0,0,0,0,0,0,0,0,0,0,0,0,0],"id":43,"left_children":[1,3,5,7,9,11,13,15,17,19,21,23,25,27,29,-1,-1,-1,-1,-1,-1,-1,-1,-1,-1,-1,-1,-1,-1,-1,-1],"loss_changes":[2.1478983E2,1.614634E2,1.4711203E2,8.572438E1,1.8066437E2,1.2547751E2,1.3919817E2,5.3028374E1,8.128461E1,1.5107352E2,1.2118852E2,1.2209587E2,1.9948715E1,1.0545234E2,5.921637E1,0E0,0E0,0E0,0E0,0E0,0E0,0E0,0E0,0E0,0E0,0E0,0E0,0E0,0E0,0E0,0E0],"parents":[2147483647,0,0,1,1,2,2,3,3,4,4,5,5,6,6,7,7,8,8,9,9,10,10,11,11,12,12,13,13,14,14],"right_children":[2,4,6,8,10,12,14,16,18,20,22,24,26,28,30,-1,-1,-1,-1,-1,-1,-1,-1,-1,-1,-1,-1,-1,-1,-1,-1],"split_conditions":[1E0,3.1E1,1E0,1.56E4,3.40021E2,9.98E1,1.56E4,3.9538E4,1.9213E4,5.91E-2,2.7174E4,1.716E3,1.37327E2,2.149E1,5.02E0,-1.9931316E-4,-2.1260161E-2,1.5193567E-2,-2.1883655E-4,-2.5043383E-2,-6.6567445E-3,-4.7072308E-4,-1.154713E-2,1.447689E-2,-1.0851747E-4,4.783329E-2,1.9904125E-2,-9.230923E-5,1.6517939E-2,-2.4544649E-2,2.613236E-2],"split_indices":[8,14,17,0,34,26,0,25,18,31,25,18,32,11,11,0,0,0,0,0,0,0,0,0,0,0,0,0,0,0,0],"split_type":[0,0,0,0,0,0,0,0,0,0,0,0,0,0,0,0,0,0,0,0,0,0,0,0,0,0,0,0,0,0,0],"sum_hessian":[2.314222E5,1.0784698E5,1.23575234E5,3.0561844E4,7.7285125E4,1.0122152E5,2.2353717E4,1.6487473E4,1.4074372E4,1.849534E4,5.878979E4,9.861423E4,2.607292E3,1.6743309E4,5.610409E3,1.5191832E4,1.2956403E3,8.206032E3,5.8683403E3,7.5547637E3,1.0940575E4,4.622973E4,1.2560059E4,6.117044E3,9.249719E4,2.8710498E2,2.320187E3,1.084226E4,5.9010483E3,2.3940582E2,5.371003E3],"tree_param":{"num_deleted":"0","num_feature":"37","num_nodes":"31","size_leaf_vector":"1"}},{"base_weights":[-8.5997523E-4,-2.7209738E-2,3.423772E-2,-4.9096797E-2,5.1887006E-2,-8.079366E-2,4.9322065E-2,-2.549533E-2,-1.05200216E-1,1.0878645E-1,-9.4703995E-2,8.040728E-2,-1.3007045E-1,8.156751E-2,-7.038674E-3,1.7041523E-3,-7.904489E-3,-1.21078575E-2,4.5664227E-3,2.677967E-2,8.683597E-3,-1.7962867E-2,-2.111885E-3,-3.952411E-2,1.5744543E-2,-1.7347666E-2,-1.5180891E-3,8.465137E-3,-3.0294875E-2,5.3123743E-3,-9.980304E-3],"categories":[],"categories_nodes":[],"categories_segments":[],"categories_sizes":[],"default_left":[0,0,0,0,0,0,0,0,0,0,0,0,0,0,0,0,0,0,0,0,0,0,0,0,0,0,0,0,0,0,0],"id":44,"left_children":[1,3,5,7,9,11,13,15,17,19,21,23,25,27,29,-1,-1,-1,-1,-1,-1,-1,-1,-1,-1,-1,-1,-1,-1,-1,-1],"loss_changes":[2.1378482E2,2.2858713E2,1.7201144E2,1.3693633E2,2.3872583E2,9.13123E1,1.5927051E2,1.6582721E2,7.336859E1,7.191472E1,5.0006523E1,9.876316E1,4.3893402E1,6.615262E1,1.7801187E2,0E0,0E0,0E0,0E0,0E0,0E0,0E0,0E0,0E0,0E0,0E0,0E0,0E0,0E0,0E0,0E0],"parents":[2147483647,0,0,1,1,2,2,3,3,4,4,5,5,6,6,7,7,8,8,9,9,10,10,11,11,12,12,13,13,14,14],"right_children":[2,4,6,8,10,12,14,16,18,20,22,24,26,28,30,-1,-1,-1,-1,-1,-1,-1,-1,-1,-1,-1,-1,-1,-1,-1,-1],"split_conditions":[5E0,3.182E-1,2.2E1,2E0,1.5623E4,2.597E3,2.1811E4,1.2E1,3E0,2.597E3,1.8E2,1.523E2,5.5335E2,8E0,6.9441E2,1.7041523E-3,-7.904489E-3,-1.21078575E-2,4.5664227E-3,2.677967E-2,8.683597E-3,-1.7962867E-2,-2.111885E-3,-3.952411E-2,1.5744543E-2,-1.7347666E-2,-1.5180891E-3,8.465137E-3,-3.0294875E-2,5.3123743E-3,-9.980304E-3],"split_indices":[22,30,19,10,18,18,18,27,36,18,33,4,4,21,4,0,0,0,0,0,0,0,0,0,0,0,0,0,0,0,0],"split_type":[0,0,0,0,0,0,0,0,0,0,0,0,0,0,0,0,0,0,0,0,0,0,0,0,0,0,0,0,0,0,0],"sum_hessian":[2.3116072E5,1.3203516E5,9.912557E4,1.0341867E5,2.861648E4,1.149064E4,8.763493E4,7.279734E4,3.0621322E4,2.061519E4,8.001291E3,2.6898792E3,8.800761E3,5.574237E4,3.189256E4,4.0571176E4,3.2226172E4,2.7705713E4,2.915609E3,2.4978994E3,1.8117291E4,3.7131084E3,4.2881826E3,3.7378677E2,2.3160925E3,6.3867686E3,2.4139924E3,5.5300418E4,4.4195544E2,1.9346332E4,1.2546228E4],"tree_param":{"num_deleted":"0","num_feature":"37","num_nodes":"31","size_leaf_vector":"1"}},{"base_weights":[4.3677233E-4,-9.665148E-3,9.734728E-2,1.822238E-2,-4.5546554E-2,-1.6115977E-1,1.191128E-1,-1.5564507E-2,1.525989E-1,-3.8490426E-3,-9.407405E-2,-2.865443E-1,1.18839756E-1,2.8910023E-1,9.6131355E-2,-1.6171219E-2,-1.2873927E-4,2.506564E-2,9.08213E-3,-1.6652627E-3,1.2229703E-2,-2.2356922E-2,-7.266646E-3,5.7963287E-3,-3.613575E-2,4.1453015E-2,-1.0719839E-2,2.1179551E-3,3.2875508E-2,5.925858E-3,1.9403238E-2],"categories":[],"categories_nodes":[],"categories_segments":[],"categories_sizes":[],"default_left":[0,0,0,0,0,0,0,0,0,0,0,0,0,0,0,0,0,0,0,0,0,0,0,0,0,0,0,0,0,0,0],"id":45,"left_children":[1,3,5,7,9,11,13,15,17,19,21,23,25,27,29,-1,-1,-1,-1,-1,-1,-1,-1,-1,-1,-1,-1,-1,-1,-1,-1],"loss_changes":[2.2652657E2,2.0968336E2,1.2293938E2,5.353306E2,1.8543042E2,5.9650944E1,7.86535E1,1.9659767E2,1.434632E2,7.961437E1,1.17372955E2,3.0269577E1,3.5267933E1,2.5468628E1,6.405757E1,0E0,0E0,0E0,0E0,0E0,0E0,0E0,0E0,0E0,0E0,0E0,0E0,0E0,0E0,0E0,0E0],"parents":[2147483647,0,0,1,1,2,2,3,3,4,4,5,5,6,6,7,7,8,8,9,9,10,10,11,11,12,12,13,13,14,14],"right_children":[2,4,6,8,10,12,14,16,18,20,22,24,26,28,30,-1,-1,-1,-1,-1,-1,-1,-1,-1,-1,-1,-1,-1,-1,-1,-1],"split_conditions":[9E0,7E0,1.48E1,6E0,2E0,5.7551E2,2.2E1,6E1,4.2E4,3E0,1.10053E2,2.4E1,3.3E1,2E0,7.36E1,-1.6171219E-2,-1.2873927E-4,2.506564E-2,9.08213E-3,-1.6652627E-3,1.2229703E-2,-2.2356922E-2,-7.266646E-3,5.7963287E-3,-3.613575E-2,4.1453015E-2,-1.0719839E-2,2.1179551E-3,3.2875508E-2,5.925858E-3,1.9403238E-2],"split_indices":[22,7,19,7,21,4,20,33,9,36,32,20,20,7,26,0,0,0,0,0,0,0,0,0,0,0,0,0,0,0,0],"split_type":[0,0,0,0,0,0,0,0,0,0,0,0,0,0,0,0,0,0,0,0,0,0,0,0,0,0,0,0,0,0,0],"sum_hessian":[2.3138592E5,2.0954483E5,2.1841086E4,1.1790692E5,9.1637914E4,1.695149E3,2.0145938E4,9.421883E4,2.368809E4,4.9288586E4,4.234933E4,1.1708103E3,5.243387E2,2.3965032E3,1.7749434E4,8.38323E3,8.58356E4,9.153281E3,1.453481E4,4.474844E4,4.540145E3,6.0051436E3,3.6344184E4,2.0897081E2,9.6183954E2,2.264464E2,2.9789227E2,3.0936987E2,2.0871333E3,1.2895697E4,4.8537373E3],"tree_param":{"num_deleted":"0","num_feature":"37","num_nodes":"31",